705 64
( 0.37918 -0.29563 -0.51683 0.53725 0.33567 -0.41469 -0.53183 0.69839 -0.37679 0.27139 -0.30848 -0.096389 -0.015196 0.2302 -0.21107 0.074653 0.012309 0.040771 0.34636 -0.22214 -0.45956 -0.069064 -0.16469 0.3016 -0.2078 -0.30219 0.43339 -0.05189 0.53336 -0.1418 -0.57025 -0.80049 0.36649 0.38505 -0.73351 -0.67259 0.31094 -0.22166 0.8694 0.15388 0.66524 0.44837 0.30166 0.12355 -0.35919 0.18568 0.165 -0.40401 -0.74068 0.76372 -1.1361 0.27247 -0.17183 0.37331 -0.54449 -0.056077 -0.56761 0.844 -0.25475 -0.12581 -1.2071 -0.28221 -0.38227 0.79331 
) 0.29162 -0.27777 -0.47269 0.49592 0.35689 -0.43256 -0.60289 0.80618 -0.46824 0.3247 -0.25617 -0.15905 0.031815 0.27528 -0.15859 0.066256 -0.030255 -0.03462 0.51412 -0.22591 -0.47096 -0.02587 -0.074766 0.32297 -0.15542 -0.27033 0.53095 -0.038006 0.56831 -0.12782 -0.48686 -0.85118 0.50449 0.46424 -0.75165 -0.55377 0.38152 -0.21777 0.86324 0.10056 0.70347 0.32443 0.22198 0.045292 -0.37846 0.16958 0.25146 -0.46747 -0.65939 0.75049 -1.1102 0.28742 -0.16166 0.34291 -0.63174 -0.1752 -0.62011 0.78824 -0.24614 -0.1285 -1.178 -0.21122 -0.40286 0.79163 
$0 0.26669 -0.2502 -0.34617 0.47839 0.35372 -0.44451 -0.69809 0.9039 -0.49062 0.16135 -0.2277 -0.17922 0.037643 0.20273 -0.29032 -0.038424 0.13821 0.037661 0.4555 -0.3022 -0.40558 0.055888 0.052411 0.26381 -0.23473 -0.3878 0.46425 -0.040334 0.41859 -0.14807 -0.56677 -0.83078 0.34521 0.45518 -0.61528 -0.51736 0.27221 -0.3405 0.81011 0.097948 0.77738 0.37943 0.24173 -0.11274 -0.34082 0.12918 0.37914 -0.34702 -0.75647 0.77611 -0.97234 0.32439 -0.14666 0.33609 -0.57493 -0.076447 -0.57822 0.92019 -0.18532 -0.14525 -1.028 -0.20326 -0.48869 0.82989 
</s> 0.26207 -0.28321 -0.058258 0.35916 0.28479 -0.19 -0.36557 0.053649 -0.064003 0.12741 -0.1046 -0.13812 0.020579 -0.013102 -0.28096 -0.12866 0.024667 0.11928 -0.0089496 -0.18984 -0.22291 -0.12991 -0.075069 0.28256 -0.13703 -0.15619 0.1676 0.082232 0.46069 -0.084981 -0.11124 -0.28724 0.32408 0.1725 -0.069382 -0.57543 -0.018883 0.020545 0.45024 0.24009 0.16043 0.21856 -0.0089947 -0.0064255 -0.1642 0.32927 0.12764 0.031534 -0.36957 0.44653 -0.45114 -0.01189 0.076717 0.1697 -0.076104 0.069917 -0.099676 0.37707 -0.055531 -0.0083348 -0.43488 -0.16744 -0.41985 0.56018 
to 0.23756 -0.24904 -0.03588 0.36316 0.34246 -0.23055 -0.40447 0.17642 -0.14644 0.064743 -0.073781 -0.14873 0.12746 -0.026991 -0.28192 -0.19225 0.08079 0.097659 0.042992 -0.22613 -0.16601 -0.056587 0.012656 0.22415 -0.16781 -0.2214 0.24049 0.09874 0.43201 -0.12486 -0.14817 -0.29923 0.34683 0.19171 -0.092943 -0.53361 -0.022905 -0.089192 0.45642 0.22575 0.24127 0.2036 -0.027259 -0.083402 -0.16598 0.33349 0.21451 0.029569 -0.40506 0.47064 -0.44694 0.041966 0.082998 0.17914 -0.16048 0.072795 -0.1761 0.44165 -0.011288 0.00084919 -0.40231 -0.17027 -0.45686 0.5316 
ci0 0.29795 -0.27946 -0.04066 0.38924 0.27345 -0.25348 -0.39348 0.12932 -0.074329 0.090579 -0.089005 -0.13709 0.054456 0.010976 -0.27266 -0.12514 0.07784 0.11479 0.039444 -0.24403 -0.2314 -0.10225 -0.051053 0.24982 -0.16942 -0.2099 0.21371 0.035329 0.41533 -0.10313 -0.19053 -0.31429 0.3224 0.17328 -0.11023 -0.5686 0.0025559 -0.066131 0.4725 0.23681 0.22182 0.20377 -0.01186 -0.053834 -0.1607 0.33997 0.19308 0.006107 -0.43702 0.45386 -0.51838 0.01035 0.034853 0.1636 -0.15051 0.13192 -0.18319 0.4642 -0.049926 -0.0048925 -0.45611 -0.1669 -0.46061 0.56512 
from 0.30746 -0.31417 -0.10278 0.39338 0.25973 -0.24293 -0.39366 0.12394 -0.079541 0.1192 -0.099303 -0.12244 0.031234 0.01829 -0.27185 -0.12009 0.048768 0.13374 0.040254 -0.24754 -0.24722 -0.093813 -0.067899 0.28006 -0.20348 -0.21094 0.21531 0.057295 0.4073 -0.1123 -0.15844 -0.3188 0.30852 0.16543 -0.1194 -0.57414 -0.0050705 -0.065493 0.48721 0.22767 0.25077 0.23825 0.015976 -0.0024312 -0.16018 0.34124 0.14801 -0.0033057 -0.4099 0.46577 -0.53168 0.011037 0.048739 0.15524 -0.13966 0.12041 -0.18863 0.4476 -0.053838 0.0051673 -0.47861 -0.17444 -0.46799 0.58113 
flight 0.26855 -0.31001 -0.017277 0.34038 0.321 -0.24412 -0.41789 0.13693 -0.089973 0.0871 -0.075909 -0.14905 0.088641 0.014956 -0.2868 -0.18349 0.087268 0.11031 0.034624 -0.26717 -0.20471 -0.085919 -0.018713 0.25322 -0.17563 -0.22692 0.21644 0.07883 0.41185 -0.12995 -0.14707 -0.3299 0.35689 0.17832 -0.078378 -0.53563 -0.021657 -0.079879 0.48084 0.25309 0.22524 0.22637 -0.032628 -0.070005 -0.14276 0.36869 0.22526 0.058579 -0.39706 0.46327 -0.4538 -0.010498 0.090965 0.16319 -0.15002 0.10652 -0.18868 0.41301 -0.039975 0.01357 -0.39501 -0.16023 -0.4833 0.53199 
ci1 0.29319 -0.34102 -0.044298 0.35873 0.2739 -0.26854 -0.43376 0.1219 -0.064854 0.11671 -0.093178 -0.16416 0.03018 0.038718 -0.24239 -0.13301 0.084275 0.11955 0.061177 -0.28479 -0.27561 -0.12212 -0.088353 0.26575 -0.17156 -0.19084 0.2119 0.048988 0.38902 -0.12533 -0.16832 -0.3546 0.36956 0.20366 -0.11811 -0.55022 0.026325 -0.06442 0.46925 0.2638 0.2429 0.2006 -0.068064 -0.028172 -0.12866 0.34959 0.18005 -0.03005 -0.42006 0.46418 -0.53295 0.0013425 0.05638 0.11851 -0.18723 0.12562 -0.21595 0.45559 -0.067419 0.022642 -0.44245 -0.16667 -0.45922 0.56614 
and 0.30162 -0.37485 -0.27729 0.39412 0.24646 -0.26018 -0.46851 0.36514 -0.23983 0.22188 -0.14123 -0.16182 -0.054472 0.099933 -0.24959 -0.043058 0.01366 0.055349 0.19728 -0.23609 -0.37848 -0.086885 -0.071494 0.32974 -0.17125 -0.22325 0.28671 0.04249 0.4627 -0.08751 -0.27661 -0.4845 0.32665 0.27659 -0.29356 -0.54245 0.087296 -0.054572 0.64187 0.15949 0.40132 0.33363 0.17675 0.015484 -0.21009 0.2775 0.18525 -0.15375 -0.40267 0.57016 -0.68599 0.092483 -0.0030442 0.25138 -0.25856 -0.037104 -0.29408 0.53643 -0.10076 -0.066579 -0.71182 -0.17298 -0.45367 0.67084 
)@@ 0.24592 -0.33108 -0.47187 0.41115 0.34235 -0.44269 -0.54544 0.83525 -0.47237 0.29398 -0.27058 -0.10365 -0.036899 0.2687 -0.23815 0.058719 0.0369 -0.040193 0.463 -0.20957 -0.4398 0.034963 0.001231 0.32407 -0.15927 -0.34146 0.44904 -0.046134 0.53205 -0.069106 -0.57441 -0.82072 0.38146 0.46465 -0.64002 -0.56732 0.24246 -0.1954 0.9087 0.13104 0.70794 0.46961 0.43098 0.0084157 -0.28142 0.22506 0.3398 -0.30857 -0.60576 0.77804 -0.98767 0.27938 -0.12066 0.38734 -0.53681 -0.1387 -0.5171 0.75622 -0.25529 -0.20897 -1.1341 -0.21171 -0.3932 0.8302 
$1 0.44454 -0.56271 -0.61142 0.46909 0.32087 -0.49532 -0.45239 0.33603 -0.17898 0.58464 -0.38523 -0.090838 -0.25388 0.37412 -0.066979 0.24907 -0.17044 0.017465 0.36169 -0.23324 -0.65765 -0.20925 -0.40885 0.45149 -0.091272 -0.061612 0.3904 -0.075443 0.70003 -0.030037 -0.31193 -0.85264 0.62341 0.40961 -0.69407 -0.71833 0.42571 0.048789 0.92527 0.30864 0.51806 0.43043 0.17924 0.38244 -0.22473 0.34603 -0.076282 -0.47312 -0.59245 0.79658 -1.2902 0.13134 -0.1285 0.2603 -0.4891 -0.13065 -0.54992 0.59563 -0.3865 -0.10488 -1.3554 -0.24142 -0.29587 0.91993 
lambda 0.34999 -0.36602 -0.40018 0.47449 0.28423 -0.37958 -0.6331 0.66643 -0.36044 0.25341 -0.1965 -0.1718 -0.015516 0.20606 -0.22142 -0.004227 0.039607 0.056662 0.38247 -0.29754 -0.46986 -0.050192 -0.082923 0.35001 -0.23381 -0.31371 0.42204 -0.0048859 0.46602 -0.14423 -0.44792 -0.74189 0.39584 0.38756 -0.54781 -0.58098 0.23536 -0.21643 0.79474 0.14999 0.6569 0.37837 0.21304 0.020319 -0.29939 0.21901 0.26402 -0.32008 -0.60398 0.71452 -0.96168 0.20324 -0.090996 0.29012 -0.49473 -0.043147 -0.52477 0.75464 -0.18464 -0.089397 -0.97027 -0.22536 -0.50035 0.78447 
e 0.35673 -0.37718 -0.39644 0.46285 0.28266 -0.37589 -0.5791 0.58699 -0.29678 0.24586 -0.20809 -0.1437 -0.058924 0.19582 -0.21794 0.020838 0.035407 0.057467 0.30915 -0.27923 -0.46335 -0.060327 -0.117 0.33644 -0.20415 -0.28902 0.38429 -0.0033199 0.45363 -0.11385 -0.43073 -0.68556 0.37475 0.36299 -0.49219 -0.59922 0.1999 -0.17862 0.78024 0.17499 0.60079 0.40717 0.24345 0.07045 -0.2618 0.24239 0.22761 -0.26815 -0.58047 0.69721 -0.93757 0.1881 -0.070248 0.28027 -0.42864 -0.022499 -0.47039 0.73402 -0.19588 -0.087409 -0.95721 -0.22734 -0.44976 0.766 
ci@@ -0.072452 0.06545 0.35097 0.37608 0.81226 -0.31712 -0.060937 0.014747 -0.15643 0.065065 -0.20632 -0.030768 0.3875 -0.056932 -0.52284 -0.21487 0.023069 -0.032154 -0.072059 0.1571 0.23283 0.066461 0.33445 0.13123 0.0045307 -0.14419 0.26243 0.090018 0.86041 0.11653 -0.018662 -0.24329 0.46993 0.26653 0.030218 -0.67281 -0.04673 0.060778 0.38385 0.27891 -0.1904 -0.027878 -0.02868 -0.23039 -0.14937 0.41693 0.19026 0.27495 -0.4937 0.42868 -0.25211 -0.00039109 0.10377 0.30749 -0.034277 -0.1176 0.16813 0.15399 -0.023001 -0.098854 -0.51923 0.020574 -0.18476 0.57038 
0@@ -0.11376 0.10252 0.27374 0.32282 0.75125 -0.3007 -0.01391 0.13158 -0.24596 0.093331 -0.21767 -0.012788 0.38261 -0.0032013 -0.49246 -0.15158 -0.0089804 -0.09213 0.0048036 0.20765 0.24709 0.11676 0.38255 0.14296 0.019568 -0.16618 0.26279 0.043742 0.82928 0.13703 -0.079005 -0.26557 0.43643 0.25394 -0.065899 -0.60628 -0.047884 0.0902 0.43459 0.1995 -0.13198 0.0052654 0.10592 -0.2466 -0.19202 0.38019 0.21537 0.23782 -0.47157 0.41237 -0.25669 0.030686 0.071931 0.35624 -0.061581 -0.1582 0.13924 0.14375 -0.039421 -0.15104 -0.58549 0.038582 -0.13257 0.55333 
the 0.0028065 0.024195 0.33359 0.40939 0.72972 -0.27922 -0.10266 -0.024193 -0.1587 0.027435 -0.15972 -0.070923 0.38993 -0.065255 -0.52434 -0.25679 0.038218 0.010296 -0.08454 0.069837 0.20724 0.052468 0.29176 0.17137 -0.059545 -0.1654 0.23874 0.095515 0.80105 0.055502 -0.0029001 -0.20137 0.46552 0.20942 0.039494 -0.67089 -0.059362 0.049997 0.3687 0.27597 -0.1497 -0.016226 -0.07839 -0.259 -0.20174 0.43565 0.18594 0.26628 -0.49837 0.39557 -0.27166 -0.029822 0.10473 0.27154 -0.023518 -0.036001 0.12134 0.20965 0.030275 -0.056006 -0.44005 -0.013393 -0.28288 0.56716 
1@@ -0.14306 0.11605 0.26965 0.30779 0.79084 -0.32093 -0.0092666 0.13114 -0.23695 0.096494 -0.24225 0.0092805 0.37018 -0.0037933 -0.48092 -0.13644 0.00082775 -0.10731 0.016299 0.23538 0.24351 0.11334 0.37502 0.10689 0.05876 -0.13425 0.28097 0.057456 0.82973 0.14137 -0.092499 -0.29017 0.43916 0.29628 -0.072423 -0.58053 -0.010054 0.079156 0.41203 0.21128 -0.14919 -0.0048623 0.098989 -0.22117 -0.1575 0.34361 0.20827 0.21695 -0.45507 0.40864 -0.24846 0.058793 0.064206 0.34914 -0.074012 -0.19598 0.14405 0.12167 -0.062191 -0.15829 -0.6052 0.048089 -0.074167 0.5171 
da0 0.22433 -0.16315 -0.042192 0.37195 0.27433 -0.25891 -0.43009 0.40245 -0.23385 -0.032084 -0.097708 -0.12337 0.16635 -0.0023466 -0.33509 -0.19501 0.17028 0.090345 0.093195 -0.24971 -0.14377 0.031149 0.097591 0.17424 -0.20289 -0.33278 0.25074 0.017568 0.34519 -0.14294 -0.34259 -0.35588 0.24612 0.19682 -0.18235 -0.49126 -0.022608 -0.21097 0.50178 0.1619 0.37505 0.27192 0.10428 -0.21098 -0.24746 0.28133 0.34721 0.0042653 -0.55365 0.48474 -0.5075 0.12066 0.0022337 0.24441 -0.22827 0.12368 -0.25073 0.60489 -0.0079969 -0.039853 -0.45737 -0.15376 -0.48851 0.54726 
on -0.0072523 0.074345 0.35644 0.3656 0.72193 -0.33468 -0.11912 0.038921 -0.14425 0.00027797 -0.19198 -0.04947 0.437 -0.063685 -0.45721 -0.24346 0.069168 0.0040242 -0.094743 0.043683 0.24687 0.081399 0.28711 0.080525 -0.042905 -0.18423 0.27008 0.043935 0.72009 0.013 -0.050324 -0.2175 0.47133 0.18514 0.012789 -0.65083 -0.030985 -0.033885 0.34394 0.2723 -0.099516 -0.017911 -0.12475 -0.27268 -0.1791 0.42206 0.2256 0.24064 -0.60039 0.4155 -0.30187 0.028175 0.069143 0.24344 -0.099633 0.034247 0.057893 0.25435 0.0036346 -0.038428 -0.43052 -0.015192 -0.25241 0.51544 
al0 0.23287 -0.26877 -0.086084 0.3504 0.35591 -0.23937 -0.3093 0.1121 -0.088219 0.21676 -0.14109 -0.11465 0.035978 0.060432 -0.2537 -0.056961 -0.024576 0.043554 0.057103 -0.12921 -0.20032 -0.08878 -0.035368 0.26928 -0.12378 -0.13843 0.22666 0.044455 0.51092 -0.042687 -0.12356 -0.37165 0.37036 0.20354 -0.16549 -0.56022 0.051765 0.016258 0.4818 0.20834 0.14942 0.20093 0.032513 0.0332 -0.1355 0.28035 0.08725 -0.025953 -0.36754 0.47844 -0.53522 0.0044211 0.030636 0.20207 -0.16124 -0.024375 -0.14836 0.33084 -0.090506 -0.027791 -0.58723 -0.11967 -0.34085 0.54513 
what -0.0061514 -0.01785 0.26057 0.37619 0.7398 -0.26827 -0.061799 -0.088512 -0.10097 0.19357 -0.20699 -0.062752 0.30374 -0.020361 -0.4755 -0.12893 -0.0865 -0.062995 -0.10606 0.17086 0.16273 0.013417 0.24707 0.20073 -0.0033441 -0.087108 0.22349 0.094249 0.85483 0.13019 0.070408 -0.2543 0.50668 0.21398 0.03321 -0.69571 -0.012077 0.14738 0.38838 0.25418 -0.22376 0.013316 -0.0082655 -0.14719 -0.15225 0.38005 0.080282 0.23265 -0.43023 0.41506 -0.30888 -0.031152 0.10854 0.30068 0.01211 -0.15131 0.17225 0.081621 -0.021027 -0.091791 -0.56186 0.040163 -0.18423 0.55891 
me -0.0066781 0.089093 0.37141 0.40982 0.68464 -0.24664 -0.12428 0.11722 -0.19124 0.020585 -0.14755 -0.057962 0.36957 -0.089052 -0.54842 -0.2511 0.04183 -0.011851 -0.044948 0.11572 0.23388 0.073384 0.38704 0.13014 -0.040009 -0.23439 0.26288 0.06451 0.74679 0.067449 -0.11783 -0.2026 0.39416 0.21782 0.034676 -0.64782 -0.086583 0.031167 0.39553 0.17458 -0.12373 0.013729 0.033844 -0.2964 -0.21845 0.38585 0.2555 0.26576 -0.49962 0.39492 -0.2307 0.013043 0.080251 0.34617 -0.012897 -0.059388 0.1281 0.24621 0.004614 -0.10051 -0.46457 0.0403 -0.27128 0.53941 
show 0.036516 -0.0025092 0.29593 0.37591 0.68162 -0.25607 -0.13361 0.0067938 -0.12699 0.0098369 -0.1588 -0.056364 0.34322 -0.061215 -0.47763 -0.23277 0.05488 0.030499 -0.077133 0.021327 0.15267 0.034735 0.23176 0.14953 -0.043259 -0.1637 0.22582 0.071564 0.73326 0.02969 -0.04633 -0.21429 0.42639 0.19757 0.026707 -0.64025 -0.053842 0.026232 0.36633 0.262 -0.11054 0.011882 -0.05982 -0.22341 -0.19263 0.39738 0.16598 0.23146 -0.49371 0.39551 -0.27045 -0.029486 0.0972 0.27151 -0.0503 -0.002965 0.065535 0.21918 0.0064692 -0.043196 -0.43102 -0.03007 -0.28031 0.53756 
fare 0.24876 -0.41784 -0.26978 0.32437 0.26801 -0.2095 -0.18413 -0.078748 0.026418 0.4591 -0.243 -0.059568 -0.22999 0.14522 -0.12378 0.16459 -0.17867 -0.0069129 0.062505 -0.043612 -0.41277 -0.20424 -0.24968 0.37694 0.004771 0.077134 0.12895 0.012178 0.6108 0.093093 -0.0021739 -0.42362 0.49766 0.26587 -0.20053 -0.63218 0.14359 0.2495 0.53229 0.25938 0.083285 0.23915 0.13884 0.31007 -0.079425 0.28483 -0.18706 -0.14859 -0.22751 0.46604 -0.6926 -0.040414 0.030277 0.15572 -0.077529 -0.15542 -0.084699 0.214 -0.21229 -0.074944 -0.82188 -0.076217 -0.12269 0.66622 
day 0.36935 -0.26382 -0.32349 0.5353 0.33181 -0.43983 -0.79638 0.94989 -0.48111 0.022306 -0.22149 -0.18204 0.15133 0.1445 -0.35048 -0.16417 0.25042 0.11793 0.33939 -0.432 -0.38393 0.073684 0.024216 0.2414 -0.32532 -0.52217 0.44356 -0.032325 0.3511 -0.26181 -0.67337 -0.82398 0.31777 0.38485 -0.5789 -0.63387 0.16817 -0.45854 0.84098 0.16451 0.88073 0.51783 0.2517 -0.21016 -0.40901 0.20645 0.48567 -0.26276 -0.93594 0.82174 -1.006 0.3435 -0.11546 0.35906 -0.58788 0.13047 -0.62595 1.0801 -0.12285 -0.09733 -0.94397 -0.28816 -0.65291 0.83102 
a 0.012542 0.041178 0.39859 0.42025 0.81832 -0.35309 -0.13093 -0.12007 -0.023103 0.099417 -0.16276 -0.073638 0.42045 -0.10164 -0.44782 -0.2404 -0.014667 0.0062651 -0.15657 0.10727 0.23136 0.067543 0.25298 0.09114 -0.038768 -0.10264 0.29659 0.14653 0.82949 0.090261 0.10231 -0.22409 0.57353 0.22715 0.11527 -0.75969 -0.042485 0.01446 0.29622 0.32112 -0.19653 -0.08729 -0.20111 -0.17798 -0.11448 0.38339 0.11546 0.26042 -0.56748 0.45559 -0.33115 0.02954 0.12512 0.21502 -0.051549 -0.069273 0.14662 0.20779 0.0025573 -0.0057123 -0.45793 0.032476 -0.24169 0.52574 
ti0 0.29271 -0.24328 -0.01219 0.43507 0.18306 -0.23823 -0.44087 0.34798 -0.17261 0.024733 -0.029002 -0.17281 0.073525 -0.0064486 -0.34583 -0.15943 0.14733 0.10291 0.10879 -0.30571 -0.24223 -0.028843 0.11997 0.26012 -0.201 -0.35362 0.23602 -0.032216 0.34473 -0.12645 -0.35577 -0.28119 0.26232 0.15928 -0.14506 -0.52825 -0.082971 -0.13394 0.54487 0.095916 0.32642 0.24359 0.098633 -0.21535 -0.2531 0.34885 0.31076 -0.005191 -0.47964 0.46932 -0.54517 0.10756 0.0045743 0.24501 -0.1944 0.13604 -0.24927 0.65194 0.032225 -0.024625 -0.48897 -0.10825 -0.57007 0.61944 
mn0 0.26974 -0.21922 -0.0626 0.31424 0.31659 -0.28599 -0.35922 0.20566 -0.098723 0.12046 -0.1606 -0.10362 0.19794 0.067106 -0.2181 -0.13048 0.036501 0.074361 0.015602 -0.26423 -0.12283 0.015882 -0.065805 0.17526 -0.19881 -0.22457 0.22141 0.0064728 0.36173 -0.14507 -0.15689 -0.39639 0.4047 0.1372 -0.16421 -0.58981 0.04069 -0.14602 0.42441 0.23597 0.32163 0.25441 -0.027949 -0.077943 -0.21137 0.27492 0.15249 -0.02247 -0.56093 0.48848 -0.5808 0.070568 0.021219 0.16035 -0.26178 0.16201 -0.23911 0.48116 -0.037441 0.022718 -0.46718 -0.13316 -0.42269 0.4843 
in -0.030792 0.060421 0.45195 0.45778 0.90774 -0.39072 -0.084718 -0.12745 -0.086889 0.06896 -0.18384 -0.069021 0.48429 -0.1053 -0.56794 -0.30131 0.0071887 -0.013937 -0.18947 0.13904 0.31324 0.074659 0.36119 0.12836 -0.048665 -0.16889 0.30237 0.15244 0.95272 0.096345 0.10956 -0.18567 0.57707 0.21638 0.11485 -0.7888 -0.071324 0.054853 0.37077 0.34035 -0.26733 -0.063804 -0.19233 -0.28521 -0.16615 0.51673 0.2029 0.33126 -0.59316 0.47205 -0.29177 -0.029974 0.133 0.28425 -0.016099 -0.068939 0.20721 0.18369 0.033667 -0.028518 -0.46633 -0.0010077 -0.29754 0.58674 
exists 0.41051 -0.54975 -0.53641 0.43942 0.27727 -0.44148 -0.46248 0.30243 -0.14086 0.5619 -0.32122 -0.11047 -0.25159 0.34103 -0.063553 0.23075 -0.17264 0.0033692 0.35587 -0.23104 -0.63383 -0.20843 -0.36578 0.46129 -0.088107 -0.051451 0.36106 -0.071857 0.63307 -0.027755 -0.24256 -0.78363 0.60869 0.39022 -0.61381 -0.6613 0.39512 0.050797 0.85123 0.2684 0.46215 0.35887 0.13921 0.34581 -0.20458 0.31526 -0.061854 -0.43454 -0.50471 0.72439 -1.1808 0.086339 -0.1088 0.22291 -0.4422 -0.12266 -0.49966 0.52571 -0.34992 -0.09345 -1.2229 -0.21213 -0.29846 0.87075 
airline 0.35956 -0.44711 -0.40828 0.40822 0.29575 -0.38886 -0.44351 0.32014 -0.14539 0.39207 -0.26866 -0.10615 -0.13996 0.25175 -0.14676 0.11358 -0.059204 0.041803 0.25055 -0.23327 -0.48613 -0.13245 -0.23056 0.3649 -0.14683 -0.14126 0.31495 -0.040766 0.51758 -0.056983 -0.27557 -0.67682 0.45022 0.31096 -0.49402 -0.6009 0.26016 -0.051385 0.74206 0.23016 0.43733 0.34893 0.13276 0.21274 -0.18685 0.27623 0.033306 -0.29828 -0.49611 0.65609 -0.95444 0.088971 -0.072836 0.22668 -0.38905 -0.05562 -0.41468 0.52637 -0.25657 -0.063148 -1.0039 -0.18224 -0.33846 0.7501 
= 0.48797 -0.63106 -0.57192 0.47096 0.26167 -0.4569 -0.52787 0.31094 -0.11996 0.57495 -0.33796 -0.1301 -0.28263 0.34742 -0.08252 0.21704 -0.16428 0.027558 0.33621 -0.28493 -0.69914 -0.23607 -0.42844 0.50509 -0.1154 -0.077146 0.35656 -0.06068 0.6378 -0.054671 -0.2853 -0.83037 0.65116 0.41698 -0.62092 -0.75777 0.36347 0.045983 0.9218 0.31275 0.50886 0.43435 0.17723 0.38084 -0.22408 0.37504 -0.049704 -0.4378 -0.55908 0.78453 -1.2613 0.08184 -0.080594 0.24367 -0.45943 -0.076851 -0.53185 0.60975 -0.36766 -0.07888 -1.2702 -0.24411 -0.36323 0.94124 
departure_time 0.39565 -0.35838 -0.31966 0.51648 0.22872 -0.37872 -0.6502 0.72008 -0.3494 0.18593 -0.16128 -0.18288 0.0034638 0.17655 -0.27573 -0.05326 0.10854 0.065025 0.35001 -0.37109 -0.45897 -0.026671 -0.012879 0.32754 -0.25913 -0.39553 0.40653 -0.05746 0.39922 -0.1748 -0.53143 -0.68747 0.37139 0.3369 -0.52518 -0.6059 0.15984 -0.25715 0.82112 0.097122 0.67314 0.41077 0.23882 -0.070565 -0.3443 0.27165 0.34193 -0.28162 -0.66239 0.70255 -0.96625 0.22442 -0.093423 0.32692 -0.48336 0.043516 -0.54848 0.87611 -0.13261 -0.073028 -0.9401 -0.19264 -0.58418 0.80034 
i 0.0066186 0.045026 0.3774 0.4202 0.79117 -0.36956 -0.15786 -0.090924 -0.054937 0.086741 -0.16271 -0.072589 0.42723 -0.099344 -0.43578 -0.25605 -0.0042574 0.001604 -0.13161 0.065979 0.23217 0.073538 0.27812 0.074429 -0.069011 -0.11498 0.31606 0.14657 0.76824 0.065101 0.068773 -0.21918 0.56596 0.22352 0.092431 -0.74185 -0.044415 -0.0062547 0.2893 0.31828 -0.13801 -0.050382 -0.19674 -0.19366 -0.12741 0.3924 0.13852 0.24356 -0.58341 0.46637 -0.31067 0.049428 0.091278 0.19914 -0.062458 -0.03265 0.12805 0.23446 0.029809 0.014609 -0.42087 0.02486 -0.27027 0.52627 
is 0.00081327 -0.056189 0.27804 0.39996 0.78313 -0.27137 -0.040271 -0.21758 -0.06746 0.18062 -0.1885 -0.060702 0.32107 -0.04273 -0.5038 -0.17717 -0.10216 -0.01693 -0.14533 0.14552 0.15653 -0.015724 0.21673 0.23223 -0.026125 -0.067315 0.22197 0.12464 0.92264 0.12003 0.15435 -0.21287 0.5498 0.19937 0.097332 -0.7622 -0.041495 0.16506 0.36407 0.29635 -0.26377 -0.013851 -0.074547 -0.14418 -0.16285 0.44631 0.056356 0.28005 -0.43195 0.41488 -0.30251 -0.074594 0.12969 0.26346 0.058581 -0.1281 0.20606 0.081556 0.013272 -0.07055 -0.52714 0.043884 -0.24295 0.60403 
dn0 0.28224 -0.23428 -0.16048 0.31412 0.28557 -0.29478 -0.42099 0.3159 -0.15315 0.14119 -0.18149 -0.1037 0.15913 0.089349 -0.18969 -0.1034 0.032341 0.074766 0.087043 -0.286 -0.18833 0.006536 -0.099342 0.17677 -0.19381 -0.2352 0.2466 -0.013034 0.33274 -0.15054 -0.20778 -0.47706 0.4089 0.18204 -0.24399 -0.56468 0.080217 -0.17026 0.47463 0.23561 0.42839 0.30785 0.027383 -0.042572 -0.23531 0.23448 0.17575 -0.07305 -0.59455 0.51944 -0.64902 0.10937 -0.0043871 0.16863 -0.29551 0.13777 -0.30918 0.54315 -0.078567 0.0091978 -0.51975 -0.16354 -0.43101 0.5084 
during_day 0.34243 -0.28232 -0.39235 0.52632 0.3949 -0.41892 -0.75197 0.91188 -0.50134 0.12179 -0.24856 -0.1891 0.12226 0.20047 -0.30072 -0.088776 0.14781 0.077804 0.39859 -0.33067 -0.41015 0.041865 -0.0084312 0.27457 -0.2948 -0.44544 0.47524 0.0083414 0.42209 -0.21167 -0.6114 -0.87282 0.35166 0.43267 -0.63959 -0.5985 0.25296 -0.40197 0.82547 0.13022 0.83411 0.46566 0.259 -0.11475 -0.38682 0.14507 0.38374 -0.33112 -0.85045 0.805 -1.0237 0.3365 -0.12857 0.3462 -0.62398 0.0094568 -0.61804 0.94759 -0.16471 -0.11663 -1.0409 -0.25685 -0.55431 0.8019 
all 0.050663 -0.011658 0.29037 0.39318 0.64695 -0.25854 -0.13378 -0.015766 -0.10911 0.060091 -0.15318 -0.072076 0.31545 -0.062491 -0.46353 -0.20867 0.030179 0.024852 -0.066031 0.044035 0.13549 0.023841 0.23659 0.17311 -0.042685 -0.15968 0.2378 0.077023 0.74101 0.05203 -0.018405 -0.20227 0.43211 0.19962 0.040098 -0.64823 -0.056173 0.056579 0.379 0.25431 -0.12982 0.0075597 -0.055407 -0.20224 -0.17733 0.41179 0.15223 0.22189 -0.46074 0.39466 -0.29814 -0.04235 0.099443 0.26883 -0.025083 -0.022435 0.090457 0.19917 0.0060143 -0.040864 -0.46311 -0.01384 -0.28745 0.55764 
leav 0.0045753 0.062296 0.40396 0.43111 0.7545 -0.31476 -0.12858 0.011281 -0.14452 -0.0026531 -0.15485 -0.072191 0.44894 -0.092987 -0.52955 -0.28161 0.062804 0.0022949 -0.11253 0.068641 0.24177 0.090069 0.33338 0.12552 -0.059091 -0.2051 0.27819 0.083491 0.79289 0.047488 -0.032208 -0.18237 0.49496 0.20249 0.069673 -0.71618 -0.088557 0.0031414 0.3534 0.26529 -0.15088 -0.032594 -0.097287 -0.30656 -0.20434 0.45005 0.23789 0.29572 -0.58153 0.42689 -0.28242 0.010559 0.10211 0.27519 -0.043776 -0.002654 0.11455 0.26882 0.048167 -0.039913 -0.42675 0.0094113 -0.31103 0.56165 
like 0.013576 0.043633 0.39955 0.4298 0.84914 -0.38216 -0.10602 -0.15418 -0.04949 0.095455 -0.19085 -0.068211 0.46368 -0.086762 -0.45233 -0.24436 -0.013437 -0.0013932 -0.18657 0.11044 0.26473 0.066981 0.28504 0.085735 -0.039465 -0.10054 0.2892 0.1429 0.83915 0.076631 0.11842 -0.20167 0.60325 0.21311 0.11813 -0.77963 -0.057527 0.037619 0.30039 0.33148 -0.20985 -0.081374 -0.21277 -0.18877 -0.10679 0.41976 0.13007 0.27518 -0.58894 0.46454 -0.32 0.029364 0.1135 0.20355 -0.043125 -0.055088 0.14943 0.19939 0.030122 0.0015315 -0.44873 0.022107 -0.22057 0.53076 
ci2 0.25901 -0.29753 -0.10239 0.35348 0.29417 -0.28579 -0.36904 0.17393 -0.070741 0.16144 -0.13121 -0.12147 0.0085799 0.075441 -0.20448 -0.054297 0.047884 0.078433 0.086387 -0.19444 -0.26496 -0.088801 -0.0781 0.24435 -0.15003 -0.16469 0.23255 0.048842 0.39415 -0.066283 -0.18341 -0.40252 0.34373 0.22741 -0.19315 -0.53138 0.059099 -0.083107 0.4854 0.22463 0.25483 0.19931 0.019085 0.050842 -0.11746 0.27536 0.12335 -0.084637 -0.39786 0.46089 -0.56946 0.035993 0.024182 0.13533 -0.2139 0.050647 -0.211 0.42053 -0.10987 -0.0042561 -0.561 -0.145 -0.33456 0.55511 
list 0.03531 -0.0077861 0.29523 0.38078 0.68582 -0.28264 -0.10684 -0.06847 -0.090613 0.074829 -0.18343 -0.056092 0.33275 -0.053855 -0.45616 -0.19699 0.011849 0.013096 -0.090924 0.065964 0.16137 0.025278 0.22205 0.15821 -0.040059 -0.13528 0.22811 0.069333 0.7626 0.055773 0.010102 -0.21017 0.47194 0.19066 0.035529 -0.6622 -0.030176 0.058664 0.3614 0.27267 -0.14221 -0.0077039 -0.089117 -0.19181 -0.17154 0.41758 0.12526 0.22656 -0.49179 0.39862 -0.30621 -0.030087 0.087066 0.24941 -0.03487 -0.026047 0.090267 0.18431 -0.00063375 -0.04638 -0.46356 -0.00044783 -0.24813 0.54847 
are 0.040704 -0.081334 0.219 0.3732 0.64481 -0.25423 -0.080429 -0.12479 -0.049585 0.17726 -0.18965 -0.055518 0.22053 -0.032003 -0.43019 -0.1307 -0.053597 -0.0096826 -0.10784 0.085599 0.065004 -0.023066 0.17089 0.23184 -0.008069 -0.07477 0.18947 0.073095 0.80189 0.10736 0.060506 -0.21824 0.50738 0.20727 0.048738 -0.71084 -0.037796 0.15204 0.38589 0.2742 -0.16807 0.032243 -0.024687 -0.10584 -0.15847 0.41632 0.054584 0.19674 -0.41119 0.41424 -0.34764 -0.043866 0.10441 0.24413 0.016607 -0.096122 0.14385 0.15029 -0.020698 -0.067205 -0.54864 0.017916 -0.21605 0.60529 
day_number 0.41434 -0.36953 -0.38895 0.435 0.28307 -0.42299 -0.57942 0.59407 -0.26033 0.25973 -0.29097 -0.12293 0.036826 0.24844 -0.18498 -0.002586 0.04988 0.064791 0.26003 -0.36479 -0.42454 -0.011992 -0.19646 0.27813 -0.22691 -0.3009 0.35281 -0.079604 0.40179 -0.18142 -0.4361 -0.78887 0.46346 0.30979 -0.56032 -0.66325 0.24672 -0.2581 0.77031 0.23452 0.68597 0.46316 0.16802 0.047492 -0.33147 0.23398 0.1776 -0.30007 -0.79758 0.74734 -1.0642 0.21707 -0.10909 0.2805 -0.51976 0.098634 -0.55528 0.81543 -0.20214 -0.051805 -0.98171 -0.22217 -0.47649 0.75479 
da@@ -0.080016 0.10019 0.32095 0.34298 0.73489 -0.30971 -0.080292 0.15491 -0.21241 0.020865 -0.19586 -0.025388 0.41471 -0.039863 -0.50108 -0.21703 0.056066 -0.050834 -0.028633 0.12387 0.24923 0.13312 0.36866 0.094561 -0.015274 -0.20225 0.27172 0.062098 0.76518 0.07879 -0.11399 -0.24727 0.42494 0.2507 -0.016973 -0.62201 -0.063056 -0.0015437 0.39622 0.22816 -0.094407 0.014497 0.048814 -0.28163 -0.18734 0.38092 0.26944 0.26284 -0.53358 0.42606 -0.26649 0.059302 0.072559 0.32105 -0.078384 -0.073384 0.10184 0.23401 -0.014575 -0.10772 -0.50443 0.008346 -0.2065 0.53344 
month 0.41694 -0.41068 -0.38218 0.45003 0.28423 -0.44513 -0.62324 0.64 -0.29548 0.26484 -0.2669 -0.14587 0.034933 0.24358 -0.19471 -0.011361 0.054829 0.05732 0.3037 -0.39603 -0.44149 0.00074831 -0.1539 0.30057 -0.25592 -0.33052 0.38404 -0.068526 0.397 -0.17214 -0.44111 -0.79299 0.4918 0.34218 -0.53828 -0.6796 0.21474 -0.26804 0.79793 0.22171 0.73008 0.47068 0.18002 0.028388 -0.31466 0.2676 0.23145 -0.29785 -0.76728 0.76528 -1.0596 0.22177 -0.079082 0.26726 -0.53863 0.09337 -0.56768 0.82772 -0.18874 -0.054271 -0.97423 -0.2175 -0.5157 0.80135 
stop 0.23319 -0.25826 -0.057376 0.35223 0.31157 -0.30451 -0.41292 0.25781 -0.10989 0.10727 -0.10551 -0.13904 0.053815 0.0449 -0.23676 -0.12595 0.093402 0.086792 0.090878 -0.22502 -0.22738 -0.030342 -0.012516 0.20299 -0.15657 -0.21293 0.25749 0.055059 0.36546 -0.087027 -0.20558 -0.39702 0.31865 0.23189 -0.16767 -0.50284 0.038518 -0.14043 0.48285 0.20548 0.2965 0.20344 -0.00015557 -0.034926 -0.12574 0.26266 0.21236 -0.054371 -0.4371 0.49445 -0.55427 0.10053 0.029897 0.15781 -0.24432 0.044497 -0.23516 0.49584 -0.087937 -0.013807 -0.51691 -0.14728 -0.39413 0.53572 
arriv 0.035704 0.14519 0.46329 0.45383 0.65475 -0.29523 -0.21944 0.22881 -0.2224 -0.15026 -0.074888 -0.10105 0.52563 -0.13674 -0.58233 -0.36574 0.17996 0.026905 -0.079049 -0.02436 0.28608 0.16261 0.47927 0.076092 -0.13473 -0.36568 0.28207 0.037394 0.62106 -0.032533 -0.1878 -0.15435 0.36837 0.14665 0.051997 -0.63881 -0.16817 -0.14597 0.36979 0.14214 -0.017046 -0.0054463 -0.048973 -0.48664 -0.28305 0.40698 0.39923 0.29452 -0.66307 0.40088 -0.23973 0.092121 0.0687 0.33207 -0.098997 0.096371 0.033976 0.44781 0.129 -0.033845 -0.34706 0.019309 -0.43927 0.52996 
of 0.029797 -0.01772 0.35989 0.4238 0.78776 -0.29539 -0.080958 -0.16041 -0.067203 0.13111 -0.17572 -0.082431 0.38406 -0.06299 -0.51464 -0.21879 -0.042859 0.00016941 -0.15439 0.098103 0.20785 0.028798 0.26682 0.19865 -0.054245 -0.12293 0.23953 0.10978 0.87784 0.089179 0.10654 -0.19679 0.53713 0.17898 0.10684 -0.75239 -0.055976 0.10913 0.37682 0.30224 -0.23297 -0.033438 -0.11458 -0.20377 -0.1655 0.4535 0.096481 0.30289 -0.5053 0.4362 -0.31365 -0.063521 0.12294 0.27238 0.019005 -0.0646 0.16311 0.12237 0.025437 -0.038971 -0.49899 0.034507 -0.2957 0.60192 
argmin 0.33905 -0.36317 -0.32607 0.43831 0.26284 -0.35978 -0.53134 0.52431 -0.25977 0.22801 -0.18892 -0.1382 -0.028085 0.18324 -0.22003 -0.0031443 0.044662 0.052955 0.27282 -0.28034 -0.41566 -0.049468 -0.084273 0.31414 -0.2001 -0.28308 0.35653 -0.019978 0.42476 -0.11376 -0.39713 -0.6302 0.38764 0.32271 -0.44312 -0.57778 0.16269 -0.17408 0.72433 0.16359 0.54367 0.37134 0.20382 0.031485 -0.25389 0.26304 0.21944 -0.24161 -0.55683 0.6426 -0.86193 0.16324 -0.050737 0.25793 -0.40452 0.011099 -0.43126 0.67931 -0.16634 -0.072074 -0.86827 -0.19156 -0.44167 0.72664 
that -0.0014939 0.023868 0.36542 0.42203 0.76347 -0.27948 -0.088922 -0.080575 -0.092918 0.082647 -0.17485 -0.08116 0.37599 -0.072453 -0.50113 -0.22218 0.0056167 -0.0032418 -0.11765 0.11082 0.18928 0.040904 0.28417 0.1815 -0.020743 -0.12721 0.24671 0.11417 0.8503 0.10181 0.051215 -0.19758 0.52254 0.22689 0.078904 -0.72441 -0.062127 0.082443 0.35711 0.28624 -0.20218 -0.051081 -0.090781 -0.216 -0.17038 0.42916 0.12305 0.24824 -0.49333 0.41137 -0.29205 -0.034986 0.11329 0.25503 -0.01416 -0.074789 0.1667 0.17239 0.013826 -0.040783 -0.4942 0.027147 -0.24049 0.599 
ap0 0.1954 -0.25362 -0.10614 0.34353 0.31442 -0.2083 -0.31879 0.14013 -0.18006 0.19018 -0.092901 -0.11519 0.043725 0.030566 -0.29319 -0.086553 -0.030758 0.048362 0.10924 -0.11434 -0.18191 -0.066656 0.022374 0.29844 -0.14969 -0.16298 0.22295 0.067103 0.50254 -0.032549 -0.096732 -0.32452 0.29255 0.20308 -0.14435 -0.49409 0.015362 0.027619 0.49103 0.17204 0.18124 0.18264 0.062018 -0.026442 -0.16242 0.28417 0.10969 -0.023039 -0.29987 0.44787 -0.47105 0.0042165 0.047715 0.21371 -0.1275 -0.053817 -0.12645 0.32895 -0.037607 -0.052742 -0.52935 -0.1294 -0.37616 0.57525 
between 0.034458 0.0087814 0.29362 0.40307 0.68427 -0.27858 -0.12994 -0.024585 -0.10938 0.072971 -0.15539 -0.061025 0.34762 -0.06795 -0.47404 -0.21023 0.011478 0.009341 -0.085797 0.064888 0.16296 0.041321 0.26368 0.16701 -0.061393 -0.15858 0.24466 0.080649 0.7601 0.058612 0.0071073 -0.20917 0.45867 0.18821 0.039613 -0.67186 -0.054613 0.042268 0.37218 0.24691 -0.12515 5.2726e-05 -0.068177 -0.21195 -0.17945 0.39896 0.14917 0.2328 -0.48542 0.41304 -0.31381 -0.011654 0.091124 0.26842 -0.03172 -0.04273 0.095648 0.21255 0.013691 -0.046048 -0.47392 -0.006119 -0.28165 0.55747 
ti@@ -0.087538 0.11215 0.38469 0.38614 0.78106 -0.30706 -0.057303 0.10809 -0.21376 0.020594 -0.18213 -0.039246 0.43687 -0.067961 -0.56481 -0.23697 0.052229 -0.048857 -0.0505 0.14732 0.28189 0.11791 0.43704 0.12127 -0.0050159 -0.2308 0.2707 0.057005 0.82816 0.10074 -0.097966 -0.20848 0.44205 0.23908 0.021498 -0.65127 -0.099342 0.030982 0.4192 0.21804 -0.16814 -0.015893 0.031066 -0.33651 -0.19752 0.43653 0.27179 0.30211 -0.53 0.42518 -0.23532 0.036306 0.083651 0.35388 -0.040602 -0.088896 0.15313 0.22183 0.013499 -0.11508 -0.50617 0.034591 -0.23831 0.57388 
fli 0.071917 -0.062196 0.35003 0.40729 0.74777 -0.32414 -0.19042 -0.1493 -0.02471 0.088492 -0.15483 -0.091815 0.35583 -0.086037 -0.4639 -0.26048 0.012311 0.040759 -0.16484 0.020824 0.1543 -0.0019788 0.20199 0.15519 -0.06727 -0.13174 0.25685 0.13851 0.78151 0.039079 0.082558 -0.20741 0.55054 0.197 0.12033 -0.74032 -0.073787 0.045332 0.34175 0.34117 -0.1748 -0.013674 -0.18383 -0.17502 -0.11633 0.44262 0.1517 0.28172 -0.50917 0.44708 -0.29504 -0.048623 0.14641 0.20087 -0.013864 -0.0074151 0.12357 0.18738 0.013853 0.010214 -0.40051 -0.024086 -0.31059 0.54246 
nonstop 0.22145 -0.20132 -0.034751 0.37885 0.31913 -0.26607 -0.41131 0.32364 -0.18246 0.071076 -0.10094 -0.13821 0.1141 0.030408 -0.28827 -0.14597 0.097275 0.071333 0.11059 -0.21537 -0.18435 -0.0027898 0.060273 0.21153 -0.16846 -0.25875 0.26759 0.034005 0.39694 -0.093753 -0.24963 -0.37965 0.31734 0.22301 -0.17542 -0.51664 0.019593 -0.1401 0.49516 0.16052 0.31329 0.21031 0.057301 -0.11533 -0.19963 0.26962 0.24609 -0.030581 -0.4757 0.48053 -0.53798 0.09982 0.013402 0.21142 -0.23789 0.050552 -0.231 0.52201 -0.040691 -0.028057 -0.52088 -0.12265 -0.43011 0.56063 
< 0.40923 -0.38517 -0.33831 0.54171 0.21081 -0.3714 -0.60796 0.6346 -0.32401 0.27644 -0.15971 -0.19526 -0.062009 0.19841 -0.23758 -0.0027938 0.056881 0.026336 0.3523 -0.33665 -0.51557 -0.064826 -0.032337 0.38077 -0.22878 -0.31525 0.40627 -0.04833 0.47934 -0.12365 -0.46262 -0.6657 0.45127 0.36257 -0.51405 -0.64176 0.18176 -0.17825 0.84266 0.092039 0.62153 0.37261 0.24808 -0.014621 -0.32619 0.2822 0.26026 -0.31593 -0.58391 0.69583 -1.0337 0.21112 -0.09288 0.3271 -0.44733 -0.026553 -0.53584 0.84332 -0.14716 -0.08954 -1.0206 -0.16868 -0.55574 0.85799 
morning:pd 0.40195 -0.3511 -0.41974 0.53011 0.32841 -0.42634 -0.79007 0.89831 -0.48507 0.11292 -0.22248 -0.19434 0.087231 0.18285 -0.31551 -0.11821 0.17656 0.095136 0.38414 -0.39792 -0.46714 0.029915 -0.032182 0.32215 -0.31188 -0.46424 0.46536 0.016748 0.42269 -0.22714 -0.61612 -0.84907 0.34964 0.42283 -0.58604 -0.63896 0.19899 -0.38563 0.88759 0.18068 0.86177 0.52161 0.28665 -0.11433 -0.37925 0.23188 0.44347 -0.282 -0.82652 0.82166 -1.0246 0.29694 -0.094469 0.35722 -0.57714 0.067861 -0.62624 0.97865 -0.15405 -0.1085 -0.99285 -0.29483 -0.65059 0.8427 
> 0.37974 -0.34558 -0.28384 0.52565 0.22111 -0.39984 -0.64162 0.7127 -0.34437 0.18912 -0.12083 -0.18401 -0.0021909 0.15762 -0.30473 -0.046611 0.12283 0.049285 0.36378 -0.3598 -0.4492 -0.0018935 0.059515 0.33749 -0.2513 -0.40132 0.41392 -0.067255 0.43404 -0.13897 -0.53046 -0.66102 0.37458 0.33226 -0.48719 -0.60707 0.13707 -0.23949 0.80978 0.072761 0.65333 0.3725 0.25238 -0.10313 -0.32293 0.26607 0.36501 -0.25833 -0.63901 0.70446 -0.95671 0.23319 -0.097409 0.3492 -0.45733 0.023042 -0.5331 0.88398 -0.11859 -0.10831 -0.93493 -0.16789 -0.6133 0.825 
would 0.020887 0.049374 0.42803 0.45236 0.85666 -0.35815 -0.13922 -0.13228 -0.054442 0.07941 -0.1732 -0.076402 0.46367 -0.10983 -0.52196 -0.28243 -0.005102 0.014096 -0.1826 0.094867 0.27178 0.076253 0.30906 0.11988 -0.056764 -0.13047 0.28801 0.1449 0.87565 0.069954 0.10118 -0.18988 0.60288 0.2158 0.13343 -0.80377 -0.079407 0.038997 0.32956 0.32106 -0.21225 -0.065014 -0.18455 -0.24874 -0.15174 0.449 0.15802 0.3064 -0.60625 0.4668 -0.30708 0.0091247 0.12088 0.25153 -0.029446 -0.029957 0.16103 0.21695 0.038057 -0.0022563 -0.45494 0.025644 -0.286 0.57358 
dn@@ -0.077289 0.086215 0.24912 0.30265 0.71328 -0.30376 -0.050725 0.14064 -0.19805 0.11629 -0.23328 -0.016771 0.37896 -0.00052316 -0.42296 -0.13856 -0.016243 -0.10024 -0.034305 0.15898 0.23503 0.1306 0.31495 0.090576 0.01649 -0.14114 0.26427 0.047443 0.74185 0.10902 -0.065819 -0.2966 0.47869 0.24896 -0.047226 -0.61606 -0.0095348 0.042656 0.38832 0.21459 -0.084114 0.042632 0.082006 -0.20677 -0.17256 0.32515 0.19449 0.20519 -0.5191 0.42723 -0.3057 0.072035 0.062898 0.31501 -0.093053 -0.11877 0.10642 0.18776 -0.048299 -0.11765 -0.5409 0.030173 -0.1317 0.49005 
to_city 0.35364 -0.40091 -0.40588 0.4366 0.24902 -0.32389 -0.55301 0.49396 -0.30325 0.2963 -0.18258 -0.15217 -0.074301 0.17465 -0.20441 0.022033 -0.021926 0.059404 0.31778 -0.26651 -0.45091 -0.074154 -0.12619 0.37199 -0.22348 -0.24422 0.35862 0.0052418 0.46232 -0.1136 -0.33426 -0.64445 0.35728 0.32099 -0.46193 -0.56098 0.18842 -0.12151 0.73954 0.15669 0.54258 0.35292 0.17957 0.093983 -0.24783 0.2265 0.1457 -0.27918 -0.48522 0.66888 -0.88174 0.14097 -0.05446 0.25739 -0.39736 -0.058707 -0.4366 0.63576 -0.16134 -0.075769 -0.90188 -0.2216 -0.46219 0.7573 
pleas 0.004326 0.024415 0.37129 0.39764 0.74671 -0.28704 -0.11178 -0.065143 -0.091602 0.060782 -0.15962 -0.063085 0.38874 -0.063271 -0.50014 -0.23511 0.005595 0.01281 -0.10747 0.088661 0.20644 0.054077 0.27952 0.1434 -0.050312 -0.14332 0.25308 0.10356 0.8157 0.070662 0.032501 -0.19595 0.49177 0.20446 0.080886 -0.71197 -0.060254 0.05911 0.33869 0.27892 -0.18942 -0.041873 -0.10842 -0.22298 -0.17297 0.42547 0.15863 0.29591 -0.50153 0.40144 -0.28118 -0.033599 0.11649 0.24831 -0.0081433 -0.039926 0.13255 0.1716 0.022575 -0.033356 -0.44747 0.0066456 -0.27931 0.54675 
for 0.020167 0.028446 0.33805 0.41133 0.70438 -0.28742 -0.11698 -0.035763 -0.10999 0.041823 -0.15347 -0.066973 0.3763 -0.085172 -0.49381 -0.23279 0.027242 0.0047979 -0.099638 0.072482 0.19291 0.046516 0.29146 0.14724 -0.050278 -0.16527 0.24862 0.092454 0.77541 0.055349 0.012799 -0.18274 0.47606 0.18996 0.063237 -0.67974 -0.066786 0.041465 0.35858 0.25688 -0.15373 -0.026447 -0.088907 -0.24269 -0.18372 0.41729 0.17274 0.25143 -0.51593 0.4021 -0.28067 -0.016991 0.10031 0.26934 -0.024268 -0.028399 0.11866 0.21552 0.023648 -0.045318 -0.44894 0.0074081 -0.28137 0.5564 
$2 0.5519 -0.76329 -0.46461 0.52077 0.36875 -0.48957 -0.57229 0.38564 -0.090618 0.57515 -0.36173 -0.19255 -0.20447 0.49434 -0.12862 0.16613 -0.10572 0.007225 0.2729 -0.30809 -0.65864 -0.11497 -0.31515 0.53133 -0.26922 -0.21737 0.43672 -0.063451 0.48647 -0.037147 -0.29509 -0.9531 0.73643 0.38235 -0.64841 -0.74485 0.27729 -0.15574 0.9094 0.24713 0.53065 0.45766 0.16726 0.36827 -0.21686 0.38541 -0.041917 -0.45875 -0.58724 0.76517 -1.1861 0.030527 0.037571 0.17539 -0.66529 0.039505 -0.56164 0.54295 -0.33173 0.023172 -1.3131 -0.084958 -0.33073 0.93508 
or 0.21054 -0.20819 -0.065444 0.37769 0.31155 -0.27089 -0.37028 0.27758 -0.17853 0.11782 -0.12011 -0.12482 0.090903 0.057763 -0.26566 -0.10284 0.049579 0.050771 0.12594 -0.17777 -0.19778 -0.032963 0.035014 0.24749 -0.14949 -0.21139 0.26452 0.026436 0.45061 -0.059711 -0.2069 -0.38766 0.34615 0.22733 -0.20253 -0.518 0.054241 -0.093442 0.50798 0.17799 0.2649 0.18448 0.049699 -0.073772 -0.19692 0.27665 0.19633 -0.060893 -0.44274 0.47629 -0.56338 0.053896 0.0025373 0.19848 -0.22266 0.019928 -0.20922 0.46431 -0.068405 -0.040832 -0.5829 -0.11904 -0.38953 0.58632 
arrival_time 0.41861 -0.29525 -0.26714 0.57792 0.22869 -0.41136 -0.71112 0.90196 -0.42668 0.1064 -0.13903 -0.20117 0.0789 0.16899 -0.33651 -0.10278 0.18059 0.064423 0.38266 -0.41049 -0.42397 0.050506 0.10279 0.30436 -0.31111 -0.50897 0.45048 -0.09649 0.35954 -0.20464 -0.65456 -0.71711 0.34322 0.33701 -0.57078 -0.62546 0.1326 -0.37227 0.86072 0.023689 0.77112 0.42474 0.28871 -0.19216 -0.41812 0.25585 0.45064 -0.28778 -0.78488 0.73355 -1.0179 0.30401 -0.13161 0.38587 -0.55604 0.091684 -0.61976 1.0364 -0.088299 -0.086716 -0.9808 -0.16939 -0.66769 0.83454 
n@@ -0.19033 0.15606 0.31647 0.29958 0.8417 -0.3297 0.012884 0.17549 -0.27307 0.14087 -0.2681 0.0035312 0.43665 0.00052301 -0.50429 -0.13833 -0.041013 -0.17521 -0.034684 0.29715 0.33398 0.17793 0.46481 0.084752 0.071013 -0.15054 0.30208 0.074107 0.90305 0.17618 -0.080817 -0.31319 0.50257 0.29356 -0.033361 -0.6348 -0.02027 0.099299 0.45137 0.19047 -0.18776 0.019946 0.16505 -0.28941 -0.18014 0.35602 0.25013 0.26327 -0.51071 0.45901 -0.25101 0.078215 0.068958 0.40311 -0.070882 -0.23611 0.20953 0.13006 -0.046331 -0.18868 -0.62076 0.072111 -0.074329 0.51782 
after 0.032893 0.083721 0.41185 0.42251 0.66408 -0.28579 -0.192 0.11726 -0.18839 -0.1138 -0.10534 -0.091753 0.47421 -0.13239 -0.56286 -0.34853 0.15831 0.0254 -0.10184 -0.0031526 0.24328 0.11457 0.40139 0.1112 -0.10304 -0.31099 0.25089 0.076767 0.67848 -0.0080094 -0.11473 -0.15257 0.39532 0.16105 0.092039 -0.63489 -0.15231 -0.079486 0.3804 0.22247 -0.075778 0.013031 -0.065818 -0.42987 -0.24486 0.45481 0.36154 0.32079 -0.61038 0.40311 -0.22014 0.031261 0.095048 0.30249 -0.04424 0.084162 0.073772 0.35985 0.096939 -0.045477 -0.33664 -0.016272 -0.42243 0.54443 
i'd 0.016264 0.017377 0.34655 0.41334 0.77997 -0.33271 -0.11944 -0.12829 -0.040825 0.11188 -0.17002 -0.064942 0.38159 -0.073468 -0.44273 -0.217 -0.029854 0.0025637 -0.14617 0.10776 0.20812 0.042346 0.24079 0.12074 -0.039066 -0.091429 0.2663 0.13766 0.81227 0.079424 0.09763 -0.20291 0.55869 0.22543 0.092963 -0.74595 -0.047605 0.052151 0.30357 0.30388 -0.19674 -0.055491 -0.15919 -0.16447 -0.11823 0.3928 0.099287 0.24167 -0.52311 0.4441 -0.30552 0.014908 0.10269 0.21547 -0.039301 -0.058309 0.14138 0.17877 0.007738 -0.010182 -0.46496 0.018724 -0.2237 0.53662 
al@@ -0.077225 0.067848 0.32511 0.35885 0.81482 -0.31316 -0.036741 0.022271 -0.16441 0.12366 -0.21346 -0.032886 0.3908 -0.032271 -0.50539 -0.18112 -0.023862 -0.070875 -0.05958 0.18899 0.24921 0.093441 0.34972 0.14593 0.013811 -0.13675 0.27391 0.085558 0.87919 0.13181 -0.0099587 -0.25525 0.50643 0.26363 0.016647 -0.68465 -0.053198 0.093011 0.40397 0.25692 -0.19709 -0.019177 0.016916 -0.21783 -0.15436 0.40456 0.17081 0.26919 -0.48151 0.44623 -0.27869 0.0091254 0.090836 0.32958 -0.042615 -0.15077 0.17059 0.12554 -0.030213 -0.10835 -0.56836 0.040611 -0.17161 0.56331 
ground_transport 0.28859 -0.38521 -0.37341 0.40281 0.20957 -0.22575 -0.4579 0.31837 -0.29364 0.25241 -0.10595 -0.13864 -0.070236 0.10369 -0.27209 -0.025514 -0.056165 0.080607 0.25198 -0.20939 -0.38812 -0.11645 -0.090405 0.42515 -0.22545 -0.20755 0.27533 0.071647 0.5014 -0.091103 -0.20711 -0.47802 0.25303 0.26388 -0.33909 -0.50874 0.092456 -0.015855 0.67128 0.16225 0.40507 0.31226 0.17499 0.057804 -0.24067 0.27286 0.13012 -0.17297 -0.31143 0.56409 -0.69291 0.050525 -0.0063934 0.24181 -0.21607 -0.081132 -0.28483 0.49455 -0.09244 -0.092707 -0.72667 -0.22384 -0.48686 0.7148 
there 0.0038425 -0.021473 0.28078 0.38771 0.72352 -0.28355 -0.094187 -0.087248 -0.10628 0.10701 -0.17134 -0.070565 0.33897 -0.050196 -0.48304 -0.20662 -0.015665 -0.0067276 -0.10655 0.09198 0.16099 0.027295 0.24593 0.20127 -0.043213 -0.1135 0.22389 0.11155 0.8136 0.084809 0.068699 -0.2175 0.49745 0.21189 0.043577 -0.67994 -0.048387 0.095836 0.36584 0.29239 -0.17239 -0.010809 -0.083786 -0.18448 -0.16795 0.42087 0.11914 0.23144 -0.44572 0.40674 -0.29715 -0.038646 0.11658 0.24859 -0.013403 -0.085495 0.14246 0.15301 0.010161 -0.049934 -0.47873 0.001225 -0.24816 0.56363 
ground 0.068927 -0.19003 0.087175 0.43613 0.59344 -0.18899 -0.12631 -0.16234 -0.17235 0.15828 -0.1019 -0.096735 0.1916 -0.069241 -0.51066 -0.17837 -0.10265 0.037415 -0.039248 0.065882 -0.0066204 -0.088915 0.1521 0.38832 -0.086523 -0.089891 0.19873 0.17452 0.88626 0.081444 0.13161 -0.17385 0.42786 0.23919 0.050067 -0.67687 -0.082286 0.20662 0.46175 0.29366 -0.13256 0.030663 -0.009051 -0.10652 -0.19435 0.47655 0.045078 0.18775 -0.26191 0.40248 -0.31495 -0.11134 0.14694 0.24732 0.094656 -0.13731 0.1588 0.13509 0.036864 -0.086507 -0.51639 -0.068804 -0.35004 0.70546 
cheapest -0.015649 0.021304 0.33513 0.40349 0.79178 -0.28485 -0.04578 -0.13161 -0.080636 0.10798 -0.20499 -0.037253 0.35739 -0.057822 -0.48822 -0.18749 -0.032206 -0.011764 -0.12488 0.14463 0.19824 0.023717 0.24793 0.16502 0.001705 -0.087972 0.2354 0.098904 0.8731 0.10867 0.073394 -0.20273 0.54373 0.22244 0.070594 -0.72855 -0.026983 0.11667 0.34234 0.30543 -0.22493 -0.044307 -0.087204 -0.16903 -0.16139 0.4286 0.08074 0.27028 -0.48611 0.39893 -0.28835 -0.032981 0.11863 0.2612 0.0024752 -0.091058 0.17107 0.12286 -0.0056308 -0.055116 -0.5105 0.030605 -0.19043 0.57325 
class_type 0.40648 -0.51327 -0.473 0.41179 0.2808 -0.37351 -0.41847 0.21598 -0.11262 0.4728 -0.29793 -0.10438 -0.18749 0.27562 -0.096876 0.16956 -0.14426 0.031447 0.24058 -0.22548 -0.5527 -0.18872 -0.32947 0.40569 -0.11845 -0.071689 0.31367 -0.038896 0.58326 -0.045907 -0.22326 -0.68326 0.52784 0.31421 -0.50182 -0.6687 0.28002 0.032342 0.75708 0.26391 0.40227 0.36778 0.12902 0.31156 -0.18804 0.301 -0.065538 -0.34248 -0.47375 0.67174 -1.0348 0.074397 -0.050313 0.20883 -0.36887 -0.079432 -0.42081 0.48685 -0.27587 -0.057906 -1.0732 -0.19178 -0.3104 0.77834 
you -0.00017419 0.057722 0.48548 0.44012 0.94385 -0.32182 -0.083539 -0.19543 -0.048783 0.10896 -0.19935 -0.058464 0.49821 -0.10596 -0.58259 -0.27467 -0.036547 0.0059652 -0.18385 0.15346 0.30116 0.068566 0.32362 0.17034 -0.036225 -0.12302 0.28837 0.15894 0.99912 0.12012 0.15208 -0.20761 0.62728 0.21283 0.19074 -0.84415 -0.061171 0.132 0.36048 0.34369 -0.29616 -0.075453 -0.17365 -0.25151 -0.16884 0.48147 0.10484 0.35593 -0.57527 0.44573 -0.29839 -0.052638 0.15933 0.29454 0.0242 -0.069464 0.2146 0.10404 0.048562 -0.008646 -0.49622 0.061427 -0.27885 0.63226 
transport 0.027736 -0.085816 0.14312 0.40197 0.62855 -0.20112 -0.1751 -0.063768 -0.22232 0.12629 -0.088505 -0.090222 0.29541 -0.085728 -0.54635 -0.23761 -0.076344 0.042321 -0.027337 0.071992 0.11439 -0.0070068 0.25548 0.3235 -0.14798 -0.15804 0.23725 0.18204 0.83232 0.042508 0.10341 -0.18395 0.33767 0.18349 0.032517 -0.62575 -0.099715 0.12974 0.43889 0.23531 -0.11014 0.028584 -0.024467 -0.18991 -0.21475 0.4115 0.14503 0.23823 -0.31467 0.43637 -0.26363 -0.070961 0.12498 0.28564 0.058577 -0.13985 0.14062 0.158 0.062811 -0.081142 -0.44255 -0.06141 -0.41489 0.62453 
need 0.029331 0.011801 0.3041 0.37995 0.69377 -0.32234 -0.14466 -0.031298 -0.089151 0.063243 -0.15958 -0.073842 0.36757 -0.071467 -0.43144 -0.22742 0.023875 0.0072669 -0.11336 0.062892 0.18255 0.059877 0.25048 0.11322 -0.056169 -0.1376 0.2642 0.10713 0.71705 0.041878 0.01855 -0.21054 0.49292 0.19824 0.041271 -0.65174 -0.04702 0.0074362 0.33491 0.26384 -0.11272 -0.015404 -0.11773 -0.20075 -0.1429 0.38232 0.1674 0.21201 -0.5341 0.42258 -0.30875 0.024105 0.083138 0.2259 -0.067869 -0.036109 0.081106 0.23138 0.0070702 -0.01763 -0.43406 -0.0094337 -0.24412 0.50016 
trip 0.039818 -0.11929 0.26499 0.46416 0.72174 -0.22429 -0.022166 -0.25384 -0.0070825 0.22764 -0.20908 -0.069265 0.20386 -0.045247 -0.44194 -0.12281 -0.087293 -0.0010996 -0.090961 0.14185 0.013629 -0.045455 0.12662 0.30916 0.040577 0.02937 0.21979 0.14022 0.99673 0.19921 0.16097 -0.18939 0.66682 0.29469 0.097028 -0.82035 -0.045279 0.25362 0.36731 0.34318 -0.26554 -0.074381 -0.054596 -0.010647 -0.15898 0.47125 -0.092951 0.18532 -0.35562 0.39781 -0.37967 -0.11291 0.1601 0.20683 0.065651 -0.17595 0.21835 0.096447 -0.042348 -0.046742 -0.63142 0.059957 -0.15355 0.73817 
doe -0.0071046 -0.08986 0.18376 0.36909 0.74309 -0.24067 -0.040013 -0.17748 -0.018437 0.37976 -0.23466 -0.053245 0.17877 0.0017975 -0.39137 -0.025206 -0.19913 -0.10495 -0.11936 0.24136 0.061298 -0.022014 0.1816 0.26542 0.059223 0.042035 0.2226 0.11891 0.96177 0.2297 0.16707 -0.28666 0.62628 0.2762 0.058326 -0.77571 0.012599 0.29194 0.4013 0.25143 -0.26315 0.027158 0.056466 0.012069 -0.11288 0.33525 -0.070894 0.16434 -0.33102 0.46628 -0.39907 -0.049641 0.12274 0.30085 0.029171 -0.29107 0.24069 0.022132 -0.07853 -0.090221 -0.7057 0.092454 -0.095906 0.60831 
round 0.048297 -0.17568 0.19512 0.48825 0.70796 -0.19989 -0.039974 -0.29416 -0.087677 0.19375 -0.1539 -0.087691 0.19739 -0.076301 -0.52707 -0.17277 -0.11782 0.020643 -0.098581 0.12968 0.0029245 -0.10807 0.14606 0.39921 -0.0040099 -0.011761 0.1988 0.18123 1.0401 0.1575 0.20577 -0.14901 0.59024 0.29265 0.11039 -0.80511 -0.082522 0.29007 0.43983 0.36669 -0.25701 -0.043328 -0.040374 -0.066538 -0.17721 0.54737 -0.051511 0.21957 -0.28961 0.40034 -0.34224 -0.14694 0.17823 0.2386 0.13556 -0.17181 0.24313 0.079088 0.0066961 -0.074432 -0.59764 -0.0041319 -0.26108 0.78376 
go 0.019475 0.018584 0.32399 0.39401 0.73466 -0.31809 -0.13788 -0.045494 -0.090922 0.072905 -0.17914 -0.063785 0.36909 -0.059297 -0.45005 -0.21736 0.011498 0.0019964 -0.10478 0.073153 0.17932 0.047562 0.24602 0.12428 -0.044823 -0.13939 0.27194 0.098475 0.75445 0.052807 0.016291 -0.23329 0.50369 0.21146 0.052638 -0.69197 -0.040972 0.020989 0.33945 0.27685 -0.12843 -0.024761 -0.11478 -0.20226 -0.15011 0.39308 0.15358 0.21831 -0.52352 0.42962 -0.31436 0.011139 0.097088 0.24586 -0.069452 -0.030362 0.10298 0.21467 0.00048104 -0.024898 -0.46329 -0.0023949 -0.24755 0.53763 
first 0.036803 -0.072679 0.28983 0.42177 0.81297 -0.30296 -0.017978 -0.28023 0.022495 0.22754 -0.24593 -0.038139 0.27211 -0.033187 -0.46402 -0.13067 -0.10547 -0.0010062 -0.16056 0.15021 0.13721 -0.037537 0.15898 0.22583 0.0088854 -0.02173 0.22791 0.07907 0.96712 0.14419 0.14614 -0.23847 0.63168 0.22209 0.077575 -0.82449 -0.00212 0.19281 0.35882 0.36407 -0.28826 -0.037206 -0.12944 -0.055006 -0.1135 0.46111 -0.053172 0.25329 -0.4751 0.45546 -0.37679 -0.077089 0.11675 0.25089 0.024382 -0.12091 0.17296 0.082391 -0.053366 -0.041708 -0.6137 0.044343 -0.17719 0.63987 
with -0.0043614 0.034908 0.38796 0.41779 0.84473 -0.33943 -0.099503 -0.12628 -0.050301 0.10364 -0.18775 -0.06132 0.41272 -0.087149 -0.49515 -0.23966 -0.011086 -0.0078771 -0.16335 0.13057 0.24091 0.053637 0.28518 0.14458 -0.028748 -0.11409 0.27088 0.13435 0.87178 0.092061 0.09765 -0.21522 0.56598 0.23194 0.10063 -0.77512 -0.056147 0.07804 0.33934 0.32125 -0.22589 -0.057285 -0.14988 -0.19459 -0.13923 0.42954 0.13309 0.28858 -0.54043 0.44443 -0.30058 -0.014911 0.12795 0.25554 -0.022728 -0.079015 0.16855 0.16867 0.0019556 -0.029943 -0.48444 0.015877 -0.23241 0.55492 
round_trip 0.45022 -0.57969 -0.53824 0.5189 0.19874 -0.33506 -0.55844 0.38813 -0.23454 0.4259 -0.22483 -0.16579 -0.24341 0.23136 -0.1773 0.10697 -0.076606 0.075812 0.34137 -0.30625 -0.67584 -0.2026 -0.29667 0.52597 -0.1854 -0.15961 0.3433 0.010918 0.60377 -0.070984 -0.31307 -0.70108 0.4941 0.40317 -0.51127 -0.70785 0.22871 0.0029391 0.86742 0.24977 0.56166 0.42006 0.23864 0.25089 -0.25885 0.33758 0.026569 -0.36742 -0.44613 0.7271 -1.0836 0.0846 -0.04406 0.24269 -0.36516 -0.088364 -0.45736 0.67169 -0.24127 -0.089351 -1.1087 -0.2484 -0.46399 0.95271 
class 0.072317 -0.15488 0.21639 0.38192 0.80512 -0.3002 0.025338 -0.40697 0.081465 0.34438 -0.26648 -0.03277 0.20325 0.018426 -0.37955 -0.045674 -0.19667 -0.032213 -0.16185 0.15843 0.043327 -0.087756 0.048078 0.26848 0.040604 0.083512 0.21539 0.092729 1.0033 0.1764 0.23837 -0.25378 0.6855 0.22708 0.05974 -0.84357 0.034046 0.29577 0.3638 0.3904 -0.34143 -0.03674 -0.14362 0.092416 -0.087997 0.45378 -0.16215 0.18219 -0.37952 0.44606 -0.44691 -0.11624 0.15399 0.20345 0.037537 -0.1888 0.17773 -0.025808 -0.087005 -0.031425 -0.67139 0.049375 -0.11842 0.6247 
airlin 0.095739 -0.15707 0.10339 0.34355 0.61502 -0.30907 -0.095767 -0.15254 0.0071077 0.26928 -0.22755 -0.040777 0.15236 0.048152 -0.32108 -0.045835 -0.094776 -0.0014799 -0.061905 0.054986 -0.012124 -0.054697 0.04057 0.22695 -0.019775 -0.019781 0.21449 0.056129 0.74921 0.093399 0.077134 -0.30679 0.50505 0.20413 -0.06382 -0.64553 0.066748 0.13096 0.41366 0.29678 -0.13021 0.039445 -0.084121 0.029656 -0.090955 0.37692 -0.031992 0.092696 -0.38753 0.43579 -0.4542 -0.054235 0.062324 0.20358 -0.071758 -0.10008 0.044825 0.10386 -0.10702 -0.032261 -0.62158 -0.014213 -0.17389 0.56085 
have 0.016434 0.014196 0.40038 0.43003 0.86031 -0.30419 -0.096415 -0.17739 -0.019558 0.1463 -0.19459 -0.056799 0.40033 -0.090912 -0.52203 -0.21681 -0.059648 0.0024417 -0.17669 0.13733 0.22914 0.051711 0.26694 0.18216 -0.024907 -0.089911 0.26476 0.12092 0.9362 0.12577 0.14295 -0.22177 0.6175 0.22025 0.15112 -0.81943 -0.045426 0.13715 0.35188 0.3189 -0.25721 -0.059864 -0.13925 -0.18504 -0.14698 0.42512 0.063552 0.30351 -0.5248 0.44 -0.32137 -0.044959 0.13437 0.27248 0.0054424 -0.095895 0.19704 0.12241 0.016034 -0.025199 -0.52271 0.04832 -0.24857 0.60595 
avail -0.0082177 -0.0059791 0.32227 0.39895 0.77303 -0.29345 -0.087465 -0.1103 -0.11121 0.10961 -0.17792 -0.063326 0.38283 -0.065536 -0.51886 -0.22303 -0.039856 -0.0084742 -0.12887 0.11556 0.21117 0.036382 0.28014 0.18727 -0.042629 -0.12142 0.24659 0.11802 0.86832 0.09053 0.091943 -0.21525 0.51766 0.20479 0.07585 -0.7162 -0.062076 0.099054 0.37173 0.29028 -0.20468 -0.016796 -0.089523 -0.21456 -0.17652 0.43628 0.13047 0.2825 -0.47792 0.42011 -0.28621 -0.041239 0.12045 0.27347 0.0084667 -0.089492 0.17069 0.1349 0.025165 -0.053582 -0.48175 0.018509 -0.2696 0.58023 
which 0.034696 -0.0043816 0.31906 0.39768 0.71036 -0.27286 -0.12227 -0.061277 -0.090038 0.077004 -0.16636 -0.071256 0.34867 -0.073263 -0.49261 -0.22036 0.0097705 0.0041419 -0.11502 0.069059 0.16863 0.032923 0.26071 0.17787 -0.049121 -0.1478 0.23194 0.091786 0.78844 0.067412 0.022686 -0.20569 0.48801 0.19669 0.066242 -0.69747 -0.06887 0.067168 0.36566 0.27118 -0.16174 -0.011351 -0.082249 -0.21179 -0.17142 0.41283 0.14426 0.25265 -0.48198 0.41195 -0.29795 -0.034117 0.10759 0.26433 -0.024344 -0.046997 0.12617 0.19165 0.016064 -0.042918 -0.4666 0.0073209 -0.27837 0.56382 
2@@ -0.13934 0.12177 0.34306 0.35013 0.85372 -0.34126 -0.010135 0.071952 -0.18054 0.10982 -0.22894 -0.014795 0.42339 -0.028553 -0.49326 -0.16842 -0.0067963 -0.10043 -0.05582 0.24393 0.28795 0.12861 0.39312 0.11137 0.042494 -0.13166 0.28964 0.10597 0.88751 0.15079 -0.018399 -0.2766 0.49554 0.28979 -0.0093621 -0.6698 -0.038758 0.081386 0.40441 0.24612 -0.19597 -0.039761 0.029931 -0.22738 -0.1476 0.37878 0.20653 0.26346 -0.49159 0.42729 -0.26248 0.059467 0.085379 0.3458 -0.059799 -0.18593 0.18177 0.12586 -0.051369 -0.13008 -0.58252 0.044311 -0.10516 0.52946 
befor 0.049049 0.038512 0.31045 0.39771 0.62086 -0.28865 -0.17497 0.08835 -0.14678 -0.001481 -0.12707 -0.076119 0.37528 -0.071668 -0.46983 -0.24554 0.082572 0.0075839 -0.052458 0.012242 0.16954 0.072876 0.30061 0.12627 -0.077153 -0.23034 0.25322 0.052718 0.66454 0.01796 -0.083916 -0.20239 0.41151 0.17404 0.015943 -0.61291 -0.071289 -0.041561 0.38431 0.21314 -0.064989 0.014962 -0.059909 -0.28732 -0.20416 0.40061 0.25428 0.21946 -0.53317 0.40814 -0.30024 0.019374 0.064767 0.27662 -0.075491 0.023222 0.035849 0.3074 0.030008 -0.043165 -0.42717 -0.022151 -0.33537 0.53405 
give 0.028027 -0.0075743 0.30485 0.39634 0.72085 -0.27756 -0.11534 -0.054332 -0.10117 0.07539 -0.18271 -0.05433 0.34496 -0.054582 -0.47283 -0.20911 0.0084385 0.012739 -0.10112 0.075115 0.16589 0.040165 0.2398 0.17411 -0.036841 -0.12916 0.24211 0.099897 0.80047 0.071452 0.026607 -0.21665 0.48963 0.21228 0.049191 -0.68904 -0.039555 0.068942 0.37152 0.27607 -0.14976 -0.0077608 -0.071565 -0.19254 -0.17524 0.4062 0.12916 0.23959 -0.49473 0.41573 -0.30239 -0.028231 0.10618 0.26376 -0.03265 -0.046742 0.11213 0.18865 0.007401 -0.041172 -0.47875 -0.0015688 -0.25529 0.57201 
one -0.0062634 -0.016182 0.33286 0.41814 0.82534 -0.31331 -0.046946 -0.18825 -0.039059 0.16772 -0.23352 -0.039242 0.34093 -0.04951 -0.47944 -0.16894 -0.053822 -0.0091456 -0.13549 0.13825 0.16861 -0.010583 0.21464 0.1927 0.015779 -0.045616 0.2328 0.092644 0.92853 0.12728 0.10963 -0.22652 0.60828 0.23751 0.081365 -0.79319 -0.017412 0.16856 0.35352 0.35196 -0.24803 -0.06226 -0.13172 -0.1118 -0.134 0.46064 0.050002 0.2768 -0.49041 0.41511 -0.34416 -0.063223 0.11918 0.23356 0.01146 -0.086497 0.16779 0.098813 -0.034391 -0.045911 -0.56741 0.018747 -0.1748 0.5996 
want 0.0476 -0.019845 0.3203 0.4308 0.73404 -0.32147 -0.15396 -0.088218 -0.069034 0.094846 -0.16839 -0.086842 0.35608 -0.074381 -0.45914 -0.22799 0.0061954 0.018373 -0.12533 0.063208 0.15584 0.034253 0.24219 0.15446 -0.048182 -0.12932 0.26325 0.11932 0.78726 0.058985 0.05328 -0.21501 0.53459 0.21746 0.074879 -0.71832 -0.058923 0.050496 0.3512 0.29387 -0.1475 -0.017388 -0.13515 -0.1831 -0.13656 0.42084 0.13527 0.23301 -0.52709 0.44024 -0.32981 -0.002084 0.11341 0.23164 -0.048772 -0.042781 0.10839 0.2202 0.0078663 -0.0093286 -0.46423 0.0028054 -0.27182 0.56007 
at 0.0063026 0.016226 0.33597 0.40421 0.71711 -0.29098 -0.12011 -0.013952 -0.13335 0.071087 -0.14618 -0.07544 0.38969 -0.054466 -0.50785 -0.21797 0.00060245 -0.0064355 -0.089599 0.086908 0.19535 0.053793 0.31363 0.1648 -0.051769 -0.18601 0.2616 0.090726 0.79699 0.070501 0.0054083 -0.2078 0.46359 0.19787 0.05104 -0.67201 -0.067153 0.045885 0.39412 0.2455 -0.14957 -0.0099311 -0.059231 -0.2609 -0.1864 0.43026 0.19197 0.25884 -0.5008 0.41857 -0.2924 -0.0047649 0.095881 0.2931 -0.021582 -0.053 0.1232 0.20767 0.021717 -0.052511 -0.47015 0.013029 -0.29716 0.56505 
first:cl 0.41821 -0.52076 -0.46826 0.4497 0.26799 -0.40171 -0.46532 0.31357 -0.13042 0.44393 -0.28934 -0.11572 -0.21133 0.27433 -0.13246 0.14794 -0.087004 0.048367 0.26814 -0.25842 -0.56997 -0.16358 -0.28977 0.41785 -0.14822 -0.13044 0.32659 -0.058199 0.56196 -0.04957 -0.29039 -0.71939 0.51829 0.34534 -0.51982 -0.6794 0.27382 -0.02174 0.78532 0.25505 0.47484 0.39479 0.16348 0.26966 -0.19552 0.30775 -0.01739 -0.33887 -0.52818 0.70849 -1.0578 0.097073 -0.076338 0.22897 -0.39869 -0.058801 -0.45848 0.58819 -0.28607 -0.070254 -1.1028 -0.19019 -0.35403 0.84159 
mor@@ -0.068624 0.10868 0.32494 0.34461 0.73282 -0.31017 -0.099242 0.13157 -0.2174 0.012176 -0.18947 -0.031211 0.43824 -0.053438 -0.50513 -0.23868 0.048957 -0.042719 -0.051631 0.11929 0.27011 0.14896 0.37956 0.10845 -0.024207 -0.20191 0.27348 0.075062 0.76533 0.077697 -0.07574 -0.24595 0.42514 0.22615 0.017326 -0.61868 -0.072652 -0.0043202 0.399 0.2334 -0.080426 0.021657 0.023979 -0.31226 -0.19855 0.38739 0.27675 0.26667 -0.55432 0.42666 -0.25339 0.059951 0.07854 0.32723 -0.070523 -0.071823 0.11317 0.23289 0.0022963 -0.098447 -0.4741 0.024758 -0.23738 0.53581 
afternoon:pd 0.33013 -0.26963 -0.24022 0.4304 0.23944 -0.33161 -0.58441 0.62316 -0.33645 0.04843 -0.14354 -0.15737 0.088276 0.10825 -0.28322 -0.12823 0.16684 0.084877 0.24144 -0.32427 -0.33052 0.01416 0.017009 0.2529 -0.24836 -0.38546 0.33694 0.00052317 0.33157 -0.18175 -0.46406 -0.57865 0.2683 0.27816 -0.38552 -0.50941 0.09839 -0.28131 0.67847 0.14113 0.59336 0.38169 0.18104 -0.14568 -0.29799 0.24967 0.37275 -0.16285 -0.64569 0.60824 -0.74937 0.20112 -0.056435 0.27836 -0.39854 0.11172 -0.45197 0.7607 -0.081736 -0.066428 -0.70668 -0.21524 -0.55382 0.65768 
morn 0.0032898 0.082889 0.34633 0.38321 0.7436 -0.31526 -0.18072 0.080562 -0.17647 -0.032499 -0.17194 -0.067878 0.47537 -0.092749 -0.49981 -0.29869 0.086521 0.011303 -0.11137 0.039187 0.25329 0.12614 0.32236 0.096672 -0.084448 -0.21597 0.27332 0.11198 0.71194 0.01362 -0.041867 -0.23621 0.44495 0.19746 0.06328 -0.66568 -0.073225 -0.061408 0.34507 0.26895 -0.05173 0.020534 -0.078948 -0.31738 -0.20226 0.38689 0.27362 0.27772 -0.61582 0.43475 -0.26921 0.051146 0.098437 0.26712 -0.088111 0.015905 0.081329 0.28262 0.043968 -0.041195 -0.38419 -0.014361 -0.32187 0.51395 
earliest 0.012568 0.028185 0.31052 0.37586 0.72342 -0.28811 -0.12052 -0.024861 -0.11674 0.04464 -0.18111 -0.053603 0.38119 -0.068864 -0.47717 -0.22157 0.017328 0.0026716 -0.12 0.083515 0.20788 0.061123 0.26041 0.13022 -0.046831 -0.15152 0.24303 0.10097 0.75766 0.049043 0.0075378 -0.21552 0.46836 0.19717 0.051472 -0.67239 -0.042174 0.025034 0.34495 0.27446 -0.12449 0.0077368 -0.069765 -0.22523 -0.17849 0.38831 0.16303 0.25824 -0.52542 0.4135 -0.28277 0.00090862 0.098274 0.26467 -0.038616 -0.03436 0.11028 0.19747 0.017102 -0.045113 -0.44194 0.0013658 -0.25758 0.52123 
way -0.010064 0.017499 0.35934 0.42758 0.84776 -0.3105 -0.077051 -0.16695 -0.052918 0.11486 -0.21092 -0.043248 0.37155 -0.057899 -0.48355 -0.20303 -0.037681 -0.0079904 -0.152 0.14836 0.20072 0.022921 0.24867 0.16039 0.0057916 -0.088367 0.24828 0.10919 0.90048 0.11027 0.10305 -0.21464 0.59158 0.23034 0.092026 -0.78428 -0.023089 0.12151 0.34003 0.34027 -0.23359 -0.047059 -0.11567 -0.16342 -0.14128 0.43567 0.094402 0.28955 -0.52587 0.43797 -0.32103 -0.013802 0.12972 0.25363 -0.0040614 -0.093029 0.17221 0.1525 -0.011328 -0.039763 -0.53445 0.034985 -0.20542 0.5905 
oneway 0.35754 -0.41988 -0.38909 0.40864 0.24085 -0.35053 -0.47157 0.36574 -0.17829 0.33909 -0.23224 -0.11879 -0.12401 0.22763 -0.13297 0.08157 -0.041996 0.043213 0.26963 -0.25411 -0.4859 -0.12752 -0.22168 0.34784 -0.13982 -0.15339 0.313 -0.03711 0.46542 -0.078679 -0.29143 -0.63879 0.45564 0.31845 -0.46372 -0.58241 0.24549 -0.061145 0.70493 0.21532 0.4739 0.34417 0.14681 0.16952 -0.21238 0.26454 0.076339 -0.29317 -0.49944 0.61902 -0.93126 0.11193 -0.06428 0.20996 -0.3806 -0.024296 -0.43056 0.57795 -0.22399 -0.061832 -0.93438 -0.19001 -0.35739 0.72889 
ap@@ -0.081699 0.055609 0.30534 0.35542 0.76884 -0.28174 -0.033888 0.04273 -0.20094 0.10743 -0.1832 -0.032632 0.37569 -0.035459 -0.52158 -0.18397 -0.027488 -0.06704 -0.035461 0.17739 0.23311 0.089245 0.36075 0.17264 -0.004645 -0.14867 0.26286 0.086367 0.86255 0.131 -0.016747 -0.23336 0.45292 0.25309 0.02226 -0.65295 -0.064493 0.10167 0.41568 0.23303 -0.17924 -0.012015 0.050472 -0.23735 -0.17483 0.40958 0.18361 0.26783 -0.43867 0.42877 -0.25413 -5.4538e-06 0.097348 0.34207 -0.01525 -0.14666 0.17294 0.13086 -0.014822 -0.12189 -0.54188 0.031685 -0.20091 0.57548 
inform 0.015489 0.030613 0.36885 0.40819 0.75886 -0.31755 -0.1301 -0.070381 -0.08983 0.056879 -0.15598 -0.073002 0.41786 -0.093886 -0.48834 -0.26118 0.0132 0.0045656 -0.13717 0.08087 0.23025 0.063054 0.29518 0.12453 -0.057461 -0.15363 0.26704 0.12217 0.79825 0.062087 0.051148 -0.18898 0.51917 0.19659 0.096686 -0.71195 -0.078907 0.032618 0.33584 0.28825 -0.17202 -0.035686 -0.13555 -0.24325 -0.16339 0.42637 0.17301 0.27753 -0.54394 0.42737 -0.27771 -0.0052118 0.11175 0.24547 -0.025263 -0.028314 0.13699 0.2104 0.033579 -0.020149 -0.42 0.0097531 -0.2861 0.53974 
argmax 0.34292 -0.35803 -0.31153 0.44433 0.24655 -0.35092 -0.57833 0.58302 -0.28677 0.196 -0.16592 -0.15838 -0.012543 0.17145 -0.23655 -0.034196 0.076339 0.063118 0.28993 -0.3146 -0.4157 -0.033099 -0.050697 0.31331 -0.22369 -0.31798 0.3672 -0.019604 0.39165 -0.13378 -0.42611 -0.63405 0.36814 0.32202 -0.43808 -0.55963 0.14809 -0.21292 0.72478 0.14202 0.58532 0.37392 0.20412 -0.011592 -0.26878 0.25014 0.26663 -0.23883 -0.56779 0.64745 -0.84712 0.17675 -0.051833 0.26289 -0.41869 0.02611 -0.45226 0.72066 -0.14369 -0.069937 -0.83886 -0.19056 -0.48821 0.7269 
min 0.39721 -0.50028 -0.47846 0.4468 0.27707 -0.42131 -0.46999 0.33629 -0.16515 0.44457 -0.29018 -0.10994 -0.1778 0.27929 -0.1244 0.13975 -0.097131 0.035896 0.2879 -0.25125 -0.55406 -0.16174 -0.29355 0.40574 -0.13049 -0.13478 0.34754 -0.039741 0.57502 -0.059915 -0.29462 -0.72082 0.53042 0.35643 -0.53831 -0.66784 0.29323 -0.015616 0.81303 0.2639 0.47973 0.39358 0.17184 0.25386 -0.2152 0.32577 0.028679 -0.34482 -0.52785 0.7077 -1.0759 0.10968 -0.077174 0.23782 -0.41259 -0.063595 -0.45666 0.5919 -0.29177 -0.074937 -1.0979 -0.22132 -0.35743 0.82097 
how -0.005249 0.015764 0.41365 0.43469 0.90438 -0.27717 -0.079848 -0.21758 -0.028815 0.14506 -0.18336 -0.058153 0.40716 -0.10087 -0.57538 -0.25213 -0.053459 0.0056792 -0.17953 0.12462 0.23621 0.027199 0.26937 0.19634 -0.017442 -0.097492 0.24664 0.11546 1.0114 0.11587 0.13721 -0.22145 0.61497 0.20593 0.16652 -0.85018 -0.074553 0.14568 0.33136 0.34549 -0.298 -0.059218 -0.1389 -0.19633 -0.17069 0.43429 0.047884 0.3345 -0.51501 0.48124 -0.30149 -0.074947 0.14789 0.30174 0.030793 -0.12441 0.18933 0.12843 0.014253 -0.027561 -0.54389 0.041161 -0.2741 0.61197 
fn0 0.29532 -0.38247 -0.22096 0.33516 0.31156 -0.2904 -0.30508 0.047667 -0.020459 0.34838 -0.2172 -0.10956 -0.064592 0.17559 -0.14497 0.048088 -0.11516 0.040661 0.097694 -0.16037 -0.33524 -0.13904 -0.21019 0.33108 -0.094122 -0.05864 0.22035 0.0083722 0.51915 -0.023793 -0.060182 -0.46179 0.49895 0.21311 -0.24028 -0.57544 0.16287 0.069463 0.52867 0.26105 0.20583 0.22823 0.017123 0.18035 -0.14878 0.29151 -0.044669 -0.13101 -0.3829 0.50421 -0.70824 -0.0027157 0.0074983 0.14107 -0.22348 -0.031974 -0.23605 0.31796 -0.17774 -0.016865 -0.72625 -0.11515 -0.2855 0.60451 
find 0.013279 0.0035975 0.38008 0.44624 0.82992 -0.31822 -0.09286 -0.16854 -0.05914 0.085814 -0.17871 -0.077543 0.40569 -0.095426 -0.52967 -0.24945 -0.011866 0.015629 -0.16352 0.11626 0.21859 0.02686 0.27327 0.17259 -0.03852 -0.11819 0.2605 0.14457 0.90055 0.087924 0.1123 -0.18279 0.57001 0.21777 0.11878 -0.7814 -0.07648 0.092801 0.34664 0.32683 -0.24455 -0.05774 -0.14814 -0.20336 -0.15715 0.4633 0.11103 0.29421 -0.5213 0.42999 -0.28598 -0.039653 0.14101 0.25588 0.016369 -0.068382 0.17996 0.15773 0.03159 -0.022739 -0.47718 0.020549 -0.26106 0.60109 
can -0.0010995 0.02132 0.45206 0.47187 0.91219 -0.30075 -0.074521 -0.22662 -0.036662 0.13058 -0.19416 -0.069278 0.43782 -0.10521 -0.57565 -0.25289 -0.049982 0.013985 -0.18651 0.15011 0.25562 0.046752 0.31388 0.208 -0.020931 -0.086359 0.26548 0.14616 1.0164 0.1414 0.16945 -0.17313 0.64619 0.22958 0.17421 -0.84935 -0.079827 0.14995 0.35665 0.343 -0.2997 -0.097951 -0.15472 -0.22602 -0.16925 0.4935 0.069412 0.34869 -0.53159 0.44032 -0.29929 -0.074626 0.14929 0.27947 0.043437 -0.095958 0.2456 0.1169 0.041628 -0.01627 -0.51364 0.058585 -0.27368 0.65147 
airline:e 0.37344 -0.47537 -0.42744 0.39615 0.27595 -0.38786 -0.41343 0.25476 -0.11072 0.43638 -0.28172 -0.10036 -0.17381 0.26962 -0.11047 0.14817 -0.09669 0.035973 0.24369 -0.22038 -0.50983 -0.16084 -0.28225 0.37837 -0.12518 -0.095284 0.30156 -0.044696 0.52991 -0.040764 -0.2384 -0.674 0.48104 0.30992 -0.50076 -0.6029 0.28204 -0.0087613 0.73653 0.24705 0.40123 0.34282 0.11742 0.26676 -0.17033 0.29125 -0.020955 -0.32106 -0.46979 0.64092 -0.97714 0.069776 -0.069187 0.20613 -0.37939 -0.060988 -0.40818 0.48141 -0.27847 -0.056638 -1.0232 -0.18126 -0.30176 0.7451 
ani 0.0098813 -0.027571 0.28085 0.38011 0.75482 -0.27373 -0.11261 -0.10806 -0.059197 0.19011 -0.18837 -0.064266 0.3174 -0.062205 -0.455 -0.16538 -0.079382 -0.038806 -0.12963 0.13014 0.15567 0.034563 0.24143 0.18886 -0.023467 -0.078801 0.24929 0.11489 0.84782 0.11921 0.093797 -0.25081 0.55489 0.22558 0.08829 -0.74254 -0.037629 0.13208 0.35504 0.2689 -0.19097 0.00082279 -0.052463 -0.13684 -0.13395 0.35465 0.080832 0.2319 -0.44906 0.45419 -0.34394 -0.0089941 0.11731 0.27527 -0.015332 -0.14208 0.16365 0.14527 0.00073939 -0.053966 -0.53598 0.034337 -0.22714 0.55361 
tomorrow 0.168 -0.16258 -0.0084546 0.35095 0.36984 -0.2559 -0.33033 0.24206 -0.17431 0.078343 -0.11763 -0.10399 0.13146 0.025024 -0.31 -0.13109 0.065898 0.055989 0.079489 -0.13814 -0.11818 -0.0036498 0.079856 0.20332 -0.13445 -0.21842 0.24202 0.043321 0.45581 -0.054384 -0.18773 -0.33994 0.3115 0.2146 -0.14134 -0.50773 0.02067 -0.084233 0.45407 0.17597 0.21481 0.17225 0.048812 -0.11521 -0.18268 0.27441 0.20397 0.012272 -0.44096 0.44782 -0.46636 0.06923 0.020079 0.2122 -0.17766 0.015965 -0.15154 0.42565 -0.041557 -0.041528 -0.503 -0.10455 -0.36299 0.53913 
evening:pd 0.38153 -0.34024 -0.39726 0.5066 0.30825 -0.40633 -0.7549 0.85887 -0.46292 0.11255 -0.20672 -0.18828 0.075388 0.17358 -0.30337 -0.11117 0.16766 0.0923 0.37481 -0.3827 -0.45229 0.027706 -0.026063 0.31275 -0.29646 -0.44416 0.44873 0.013995 0.40691 -0.2153 -0.58543 -0.80578 0.33679 0.40571 -0.55522 -0.60545 0.19026 -0.36216 0.85225 0.17039 0.82227 0.49625 0.27428 -0.11075 -0.35955 0.22664 0.42699 -0.26849 -0.77841 0.7857 -0.97448 0.28155 -0.090597 0.34308 -0.54517 0.059929 -0.59714 0.9329 -0.14748 -0.10401 -0.94742 -0.27946 -0.62523 0.81435 
from_airport 0.32947 -0.38921 -0.35179 0.39803 0.19859 -0.24432 -0.47557 0.32479 -0.24158 0.25257 -0.11978 -0.1343 -0.071772 0.11414 -0.24063 -0.010528 -0.040629 0.08951 0.22775 -0.2426 -0.39001 -0.09885 -0.11367 0.38824 -0.23579 -0.21513 0.2784 0.038913 0.44435 -0.099722 -0.23533 -0.49087 0.26867 0.23678 -0.33179 -0.52152 0.099137 -0.054015 0.65357 0.15772 0.41223 0.31696 0.15581 0.081006 -0.21935 0.25786 0.12158 -0.17483 -0.35411 0.57301 -0.71633 0.056163 -0.015662 0.22374 -0.24941 -0.025034 -0.31605 0.5149 -0.11082 -0.064578 -0.72202 -0.20992 -0.48141 0.68488 
do -0.0003034 -0.038725 0.31599 0.42028 0.80026 -0.26662 -0.073197 -0.20956 0.00063018 0.23563 -0.19813 -0.057551 0.30993 -0.056661 -0.45837 -0.14504 -0.11995 -0.018377 -0.15861 0.16603 0.13698 0.019228 0.22713 0.26096 0.010652 -0.014134 0.23741 0.12978 0.96918 0.18175 0.20205 -0.20053 0.6497 0.2532 0.13159 -0.80487 -0.032126 0.20573 0.35957 0.30674 -0.24342 -0.067131 -0.09576 -0.10236 -0.14018 0.43082 -0.012842 0.24772 -0.42352 0.42571 -0.36043 -0.076333 0.13507 0.24778 0.033469 -0.17161 0.24008 0.086737 -0.0064219 -0.02594 -0.58687 0.071116 -0.21094 0.64888 
fb@@ -0.077945 0.017743 0.25398 0.35257 0.79213 -0.29011 -0.018872 0.0048031 -0.15074 0.23564 -0.23306 -0.027471 0.30868 -0.0062013 -0.46081 -0.09996 -0.10829 -0.11919 -0.056701 0.24648 0.19353 0.066937 0.30878 0.17659 0.049669 -0.083817 0.25937 0.09404 0.91521 0.18551 0.027605 -0.28944 0.54578 0.28306 0.0064842 -0.7068 -0.024757 0.17461 0.43152 0.23433 -0.22183 0.027788 0.098494 -0.13293 -0.13107 0.36787 0.096965 0.22965 -0.42321 0.46026 -0.31732 0.022391 0.10111 0.347 -0.020222 -0.23182 0.20033 0.083728 -0.066071 -0.13602 -0.65623 0.065909 -0.099179 0.57004 
afternoon 0.072272 0.025029 0.28585 0.40417 0.59325 -0.29437 -0.25154 0.18181 -0.20558 -0.076796 -0.11683 -0.096405 0.4019 -0.085879 -0.49277 -0.29753 0.14515 0.036014 -0.055313 -0.044121 0.15045 0.094567 0.31774 0.12321 -0.12493 -0.29529 0.26356 0.077592 0.60474 -0.038878 -0.15204 -0.22799 0.3566 0.17984 0.013624 -0.59666 -0.091813 -0.10989 0.40254 0.21219 0.037391 0.074096 -0.034821 -0.35334 -0.22893 0.38957 0.34538 0.22867 -0.59535 0.42566 -0.29722 0.066164 0.068984 0.27946 -0.10337 0.074282 -0.011632 0.39462 0.060654 -0.044092 -0.38155 -0.051832 -0.41409 0.52668 
next 0.029283 0.0061027 0.31776 0.39853 0.69549 -0.29248 -0.13684 -0.021395 -0.11422 0.055115 -0.15993 -0.078583 0.36943 -0.076052 -0.47834 -0.23005 0.023671 0.0067801 -0.097859 0.05677 0.18017 0.051665 0.27316 0.15794 -0.062205 -0.16772 0.25826 0.099098 0.76123 0.052515 0.0010918 -0.20177 0.48185 0.19984 0.052053 -0.67837 -0.06611 0.038343 0.36289 0.26333 -0.12939 -0.0015647 -0.088579 -0.22897 -0.17048 0.41986 0.17759 0.24234 -0.51152 0.42448 -0.29765 0.00027671 0.10349 0.2572 -0.037294 -0.025488 0.10586 0.22954 0.016645 -0.033196 -0.44636 -0.005351 -0.29199 0.55249 
ti1 0.3078 -0.27125 -0.092266 0.44794 0.1956 -0.27522 -0.50384 0.45433 -0.23446 0.072015 -0.051044 -0.17658 0.053488 0.046609 -0.31464 -0.13503 0.12374 0.082536 0.18246 -0.32326 -0.28904 -0.024452 0.093773 0.27487 -0.21248 -0.34917 0.28995 -0.028702 0.35612 -0.14295 -0.37117 -0.39472 0.30353 0.21476 -0.24711 -0.52723 0.0076886 -0.16403 0.60828 0.08999 0.42586 0.27288 0.12924 -0.17777 -0.26845 0.31489 0.3238 -0.086919 -0.50188 0.51504 -0.64661 0.14002 -0.018885 0.25286 -0.26867 0.088128 -0.33693 0.6923 -0.008751 -0.0396 -0.5989 -0.1228 -0.57155 0.65086 
depart 0.040481 0.023396 0.30316 0.39981 0.61864 -0.26332 -0.19121 0.10418 -0.1673 0.0091368 -0.11676 -0.088255 0.36503 -0.078568 -0.48794 -0.24887 0.069188 0.015193 -0.04592 0.0069244 0.15444 0.065766 0.30983 0.14377 -0.089934 -0.2361 0.25449 0.061298 0.66885 0.010423 -0.087365 -0.20534 0.39691 0.1809 0.014978 -0.61695 -0.084154 -0.019271 0.39117 0.19346 -0.052777 0.022108 -0.03784 -0.292 -0.21356 0.38648 0.25609 0.22377 -0.51056 0.40623 -0.29462 0.022747 0.078261 0.28763 -0.066234 -0.0065971 0.042886 0.30902 0.046935 -0.039199 -0.42178 -0.0060563 -0.34699 0.53572 
flight_number 0.38736 -0.45521 -0.33504 0.38288 0.26751 -0.35728 -0.46037 0.27412 -0.11254 0.34554 -0.23786 -0.12397 -0.085004 0.22678 -0.14616 0.037983 -0.0369 0.058332 0.19333 -0.29123 -0.44851 -0.12877 -0.24806 0.34306 -0.15551 -0.15938 0.28272 -0.02549 0.46773 -0.10604 -0.23948 -0.6378 0.49405 0.27766 -0.41127 -0.61679 0.21302 -0.06906 0.68849 0.26856 0.4321 0.36051 0.082327 0.16824 -0.20264 0.30684 0.053654 -0.23319 -0.53188 0.63327 -0.90659 0.067051 -0.034525 0.1997 -0.35969 0.028621 -0.40756 0.54281 -0.21359 -0.026815 -0.86745 -0.1865 -0.39422 0.70069 
afternoon@@ 0.029503 0.043055 0.28425 0.38165 0.61854 -0.29196 -0.19958 0.17655 -0.21156 -0.034793 -0.13794 -0.077361 0.39519 -0.068653 -0.48434 -0.26335 0.10967 -0.0011188 -0.047414 0.016294 0.17254 0.10404 0.33598 0.1196 -0.088213 -0.26427 0.26348 0.07167 0.6428 -0.00054145 -0.13797 -0.23461 0.37662 0.19781 0.0050483 -0.59229 -0.080432 -0.06597 0.40496 0.20272 -0.0024257 0.062919 0.00336 -0.33037 -0.21563 0.37776 0.32065 0.22923 -0.56291 0.42148 -0.28471 0.067536 0.068218 0.2965 -0.093759 0.017959 0.025603 0.34188 0.039364 -0.068546 -0.41755 -0.027937 -0.3486 0.51869 
earli 0.012509 0.057102 0.36684 0.40637 0.78778 -0.33365 -0.16836 0.0088594 -0.13681 0.0015818 -0.18231 -0.069397 0.46749 -0.098716 -0.51382 -0.28397 0.050094 0.010153 -0.15881 0.062762 0.26456 0.10832 0.31298 0.096044 -0.070151 -0.19036 0.27652 0.1296 0.77986 0.030358 -0.0038386 -0.223 0.4963 0.19919 0.0767 -0.72707 -0.07139 -0.030674 0.35037 0.305 -0.10465 0.017234 -0.10289 -0.29589 -0.19282 0.41186 0.23398 0.29913 -0.61605 0.46327 -0.28454 0.031928 0.10325 0.27592 -0.065202 0.0066947 0.11568 0.25611 0.044682 -0.032686 -0.41681 -0.0099795 -0.31615 0.52923 
aircraft_code 0.34258 -0.4436 -0.3405 0.37809 0.25502 -0.32175 -0.39534 0.22996 -0.11695 0.40943 -0.21285 -0.12395 -0.14241 0.23124 -0.14228 0.10849 -0.10707 0.014788 0.21118 -0.19516 -0.45172 -0.1334 -0.18785 0.38332 -0.12038 -0.11346 0.27849 -0.023263 0.51254 -0.020643 -0.19188 -0.57947 0.46508 0.27367 -0.37583 -0.57017 0.20386 0.026073 0.68891 0.19589 0.33755 0.31354 0.13441 0.18069 -0.17213 0.28845 0.012252 -0.23444 -0.39951 0.5861 -0.84761 0.05617 -0.031894 0.21039 -0.29755 -0.071524 -0.33335 0.42286 -0.20207 -0.063418 -0.90349 -0.12814 -0.33876 0.70967 
tell 0.011794 0.017408 0.43301 0.46335 0.885 -0.30952 -0.087407 -0.19944 -0.058733 0.11825 -0.18593 -0.0704 0.4367 -0.087484 -0.5782 -0.25304 -0.047637 0.016453 -0.17222 0.13442 0.25554 0.037327 0.31367 0.1993 -0.028808 -0.11961 0.27348 0.13736 0.98325 0.11934 0.13396 -0.18594 0.60548 0.21168 0.15601 -0.82195 -0.083555 0.13447 0.37669 0.32876 -0.28546 -0.067999 -0.15417 -0.24005 -0.17815 0.49324 0.096577 0.34527 -0.53123 0.43975 -0.28519 -0.069066 0.14805 0.29503 0.044836 -0.07777 0.21195 0.12492 0.040509 -0.020222 -0.50878 0.034022 -0.29386 0.64289 
meal 0.24276 -0.24217 -0.14708 0.38804 0.32969 -0.28019 -0.41986 0.37767 -0.21145 0.16712 -0.15004 -0.13588 0.058427 0.098191 -0.27597 -0.068857 0.03664 0.0456 0.16345 -0.17448 -0.24039 -0.026004 0.020934 0.24633 -0.16306 -0.24524 0.29001 0.025049 0.4439 -0.076209 -0.28473 -0.48098 0.34152 0.26348 -0.28379 -0.53808 0.085634 -0.11684 0.57441 0.14687 0.35306 0.25961 0.1299 -0.048629 -0.21486 0.23142 0.20607 -0.10289 -0.49081 0.54149 -0.6422 0.11383 -0.01804 0.2492 -0.27787 -0.015552 -0.27103 0.52656 -0.10432 -0.068939 -0.68551 -0.12818 -0.38652 0.60512 
serv 0.041978 -0.034548 0.27818 0.38457 0.7175 -0.27208 -0.10501 -0.11645 -0.043178 0.15144 -0.16471 -0.064032 0.30651 -0.059954 -0.44624 -0.17417 -0.047212 -0.00038562 -0.1108 0.090836 0.14327 0.0079584 0.19982 0.179 -0.043278 -0.096295 0.23674 0.10551 0.79431 0.082305 0.074388 -0.23451 0.50292 0.20447 0.070585 -0.7143 -0.041464 0.096665 0.34035 0.28198 -0.19076 -0.020807 -0.086653 -0.12287 -0.1212 0.37188 0.068943 0.22726 -0.44602 0.43255 -0.33513 -0.041647 0.11295 0.24919 -0.015351 -0.090409 0.11771 0.15175 -0.014891 -0.03207 -0.49817 0.0092613 -0.24274 0.5425 
code 0.098486 -0.26747 -0.08614 0.32246 0.52072 -0.22337 -0.084408 -0.095403 -0.017715 0.55218 -0.26344 -0.062092 -0.071374 0.12687 -0.21833 0.16131 -0.2919 -0.16019 -0.0098974 0.21463 -0.18164 -0.1049 -0.0045502 0.32536 0.081036 0.096844 0.20321 0.06764 0.81311 0.2229 0.093405 -0.41651 0.5969 0.29509 -0.092313 -0.68854 0.11998 0.34824 0.51137 0.17938 -0.14594 0.1568 0.19945 0.20852 -0.069395 0.24566 -0.13806 -0.024978 -0.21616 0.48922 -0.5479 -0.017037 0.079582 0.28227 -0.036962 -0.34633 0.11435 0.032084 -0.19497 -0.13403 -0.85427 0.04688 -0.026242 0.59332 
early:pd 0.40108 -0.3567 -0.38315 0.49304 0.27214 -0.37713 -0.71507 0.76265 -0.39762 0.11946 -0.19253 -0.18222 0.052166 0.15761 -0.28627 -0.099416 0.14605 0.10069 0.30974 -0.38294 -0.44082 0.0089527 -0.055538 0.3072 -0.29707 -0.41832 0.40156 0.018185 0.37968 -0.20948 -0.54092 -0.74731 0.32526 0.35653 -0.50166 -0.61475 0.1614 -0.32912 0.80147 0.17289 0.76856 0.49581 0.25957 -0.084702 -0.34171 0.22885 0.37128 -0.2443 -0.74402 0.74608 -0.94484 0.25561 -0.075872 0.31421 -0.50087 0.089207 -0.5552 0.89046 -0.12796 -0.083588 -0.89195 -0.26865 -0.61344 0.77117 
aircraft 0.14048 -0.18352 0.12972 0.36271 0.57336 -0.2823 -0.13139 -0.15278 -0.010419 0.25526 -0.17452 -0.081196 0.17407 0.052521 -0.35548 -0.08215 -0.098063 0.010925 -0.054973 0.012732 -0.01753 -0.050159 0.082531 0.27525 -0.048894 -0.072087 0.21417 0.054515 0.73734 0.07684 0.078048 -0.26823 0.51436 0.16909 -0.004934 -0.64202 0.018444 0.12998 0.45045 0.27457 -0.11755 0.052512 -0.079354 -0.045327 -0.12894 0.42391 0.0041723 0.14253 -0.3871 0.42882 -0.43739 -0.0679 0.082855 0.20525 -0.035287 -0.056978 0.029694 0.1129 -0.044665 -0.030021 -0.58403 0.005631 -0.28147 0.60828 
do0 0.28276 -0.40812 -0.30018 0.40627 0.21413 -0.21483 -0.34325 0.21195 -0.11229 0.35929 -0.16459 -0.12011 -0.18957 0.15426 -0.13719 0.091628 -0.092998 0.018204 0.21378 -0.16088 -0.48798 -0.13453 -0.16776 0.43119 -0.069558 -0.034744 0.2412 0.028823 0.5665 0.052867 -0.1465 -0.46261 0.48671 0.34157 -0.28459 -0.59527 0.14099 0.093442 0.58148 0.20059 0.32093 0.23498 0.20462 0.20263 -0.19828 0.27342 -0.05828 -0.22916 -0.27653 0.50355 -0.78257 0.032742 -0.0010218 0.17533 -0.21779 -0.1356 -0.22293 0.4275 -0.16244 -0.05339 -0.85134 -0.075054 -0.27434 0.75601 
o'clock 0.014046 0.046918 0.36906 0.41981 0.67737 -0.28452 -0.13456 0.044518 -0.15099 0.0053028 -0.12287 -0.077971 0.4087 -0.094858 -0.52351 -0.27484 0.062762 0.00044234 -0.078952 0.047192 0.21713 0.080367 0.36094 0.14289 -0.061049 -0.23217 0.26043 0.072065 0.75023 0.045742 -0.051245 -0.16695 0.45813 0.18024 0.069108 -0.66385 -0.12035 0.010277 0.38136 0.2255 -0.13055 -0.010213 -0.060301 -0.32282 -0.20214 0.44315 0.25512 0.28577 -0.52814 0.41212 -0.27234 0.014633 0.095235 0.29603 -0.038486 -0.0027921 0.096818 0.28101 0.057487 -0.049993 -0.41797 0.011516 -0.34882 0.56872 
latest -0.0095973 0.032984 0.3548 0.40675 0.80094 -0.29258 -0.097537 -0.071499 -0.11775 0.061977 -0.19 -0.057701 0.40811 -0.077101 -0.52484 -0.23424 0.00088489 -0.00073407 -0.12204 0.11673 0.22866 0.052091 0.29233 0.15831 -0.04068 -0.14007 0.25322 0.11011 0.85484 0.075345 0.04299 -0.21272 0.51207 0.21382 0.076381 -0.71918 -0.046374 0.065156 0.35946 0.29414 -0.18158 -0.023427 -0.082969 -0.24044 -0.18311 0.42802 0.15064 0.29069 -0.52676 0.421 -0.27384 -0.022117 0.11652 0.28408 -0.01237 -0.067045 0.15206 0.16573 0.022845 -0.055763 -0.47323 0.018087 -0.25838 0.5673 
even 0.0025268 0.054004 0.32571 0.38616 0.69913 -0.29464 -0.17642 0.088183 -0.17935 -0.020233 -0.15599 -0.07067 0.42698 -0.0858 -0.49783 -0.27191 0.075907 0.01336 -0.076972 0.041411 0.21684 0.099619 0.31768 0.11817 -0.081633 -0.21545 0.26643 0.097079 0.70853 0.015889 -0.054855 -0.22372 0.42479 0.19986 0.045487 -0.63376 -0.075272 -0.039014 0.36585 0.24921 -0.053761 0.028282 -0.064179 -0.30824 -0.19996 0.38128 0.26431 0.26359 -0.56699 0.42177 -0.26535 0.040956 0.09197 0.27821 -0.068503 0.00035561 0.068568 0.27364 0.042895 -0.046159 -0.4044 -0.022697 -0.31598 0.52831 
da1 0.25277 -0.20156 -0.14434 0.39176 0.28207 -0.28799 -0.48878 0.48117 -0.27451 0.039945 -0.13784 -0.13091 0.12763 0.062284 -0.30099 -0.1405 0.13251 0.079305 0.1592 -0.26674 -0.21766 0.02809 0.038837 0.20733 -0.21847 -0.3265 0.2915 0.01517 0.3554 -0.14519 -0.36062 -0.48283 0.27749 0.23858 -0.28805 -0.51195 0.047782 -0.22431 0.57368 0.16274 0.46465 0.31151 0.1289 -0.14587 -0.26189 0.23664 0.30836 -0.088638 -0.58789 0.54637 -0.63091 0.14005 -0.023029 0.25346 -0.30961 0.083356 -0.32795 0.64388 -0.056315 -0.044759 -0.60823 -0.17405 -0.47655 0.60193 
citi 0.040116 -0.04406 0.29903 0.39893 0.7245 -0.28056 -0.13543 -0.10691 -0.074652 0.11078 -0.15784 -0.076992 0.33056 -0.064466 -0.48144 -0.21854 -0.015814 0.017546 -0.11485 0.065768 0.15324 0.0098252 0.22989 0.1967 -0.064817 -0.12166 0.24181 0.11235 0.80639 0.066739 0.061214 -0.22051 0.49896 0.20923 0.074632 -0.71068 -0.06054 0.078037 0.36207 0.29616 -0.17245 -0.01628 -0.10564 -0.16944 -0.15179 0.41407 0.12283 0.24663 -0.46318 0.4314 -0.30349 -0.049595 0.11858 0.24322 -0.017727 -0.065519 0.12866 0.17514 0.0092537 -0.030909 -0.46447 -0.0044869 -0.29036 0.56815 
stopov 0.013092 -0.010084 0.39204 0.42438 0.80632 -0.34043 -0.14654 -0.11579 -0.04216 0.082026 -0.15738 -0.090362 0.3932 -0.098589 -0.49394 -0.26452 0.016676 0.021161 -0.15855 0.081678 0.19739 0.047995 0.27715 0.14393 -0.044785 -0.1298 0.26914 0.15197 0.83003 0.075337 0.084957 -0.21171 0.53952 0.22529 0.12685 -0.75083 -0.080087 0.043664 0.34538 0.32524 -0.20375 -0.054919 -0.17384 -0.20195 -0.11333 0.43229 0.1639 0.28566 -0.50979 0.45494 -0.30019 0.00086978 0.1387 0.23028 -0.028202 -0.060876 0.15689 0.20339 0.0056079 -0.018387 -0.44833 -0.00014815 -0.2798 0.55544 
around 0.010534 -0.058677 0.32394 0.48134 0.78049 -0.25503 -0.078762 -0.18205 -0.13282 0.089945 -0.14276 -0.088012 0.3537 -0.11233 -0.59201 -0.25978 -0.037999 0.017243 -0.12866 0.1198 0.15503 -0.016493 0.2863 0.29452 -0.043101 -0.12139 0.23947 0.16327 0.98531 0.11241 0.12539 -0.1451 0.54559 0.24565 0.13204 -0.78548 -0.11939 0.17327 0.42195 0.33133 -0.24589 -0.044687 -0.077545 -0.22498 -0.20142 0.53935 0.10862 0.30172 -0.42345 0.42235 -0.27227 -0.08984 0.16718 0.27936 0.087282 -0.10265 0.23177 0.15074 0.052487 -0.06859 -0.50741 -0.0043693 -0.32388 0.70794 
count 0.34154 -0.4119 -0.34278 0.40507 0.25074 -0.30016 -0.44597 0.30771 -0.16213 0.3297 -0.19286 -0.13134 -0.10671 0.18066 -0.16774 0.056575 -0.059119 0.042268 0.21151 -0.21556 -0.43503 -0.11558 -0.16947 0.36001 -0.15326 -0.16045 0.29414 0.0031754 0.47881 -0.058595 -0.23748 -0.57594 0.42667 0.29191 -0.37959 -0.59014 0.17429 -0.032665 0.66159 0.18778 0.40316 0.3279 0.14918 0.1463 -0.19348 0.25097 0.057072 -0.23829 -0.43263 0.59431 -0.8227 0.079916 -0.027394 0.21185 -0.3158 -0.04883 -0.34051 0.50911 -0.18288 -0.053113 -0.85361 -0.16937 -0.3669 0.70191 
ticket -0.012125 0.013453 0.45096 0.47919 0.92917 -0.31706 -0.043944 -0.26358 -0.031155 0.14146 -0.20847 -0.070576 0.42684 -0.11441 -0.58038 -0.24449 -0.056896 0.00066995 -0.20577 0.17021 0.25551 0.027572 0.31112 0.20494 -0.01141 -0.08323 0.26005 0.14116 1.0388 0.14036 0.1666 -0.17705 0.66494 0.2384 0.17701 -0.89062 -0.10061 0.16684 0.34427 0.36557 -0.33644 -0.09234 -0.15663 -0.19518 -0.15163 0.51166 0.061811 0.35786 -0.5319 0.45743 -0.28929 -0.062166 0.16583 0.2716 0.065008 -0.11386 0.25435 0.10908 0.031217 -0.03523 -0.5317 0.065687 -0.2468 0.66125 
cost -0.0043325 -0.021222 0.37497 0.4451 0.87786 -0.2712 -0.018816 -0.27242 -0.022337 0.19948 -0.21862 -0.054302 0.34927 -0.072276 -0.52489 -0.18496 -0.095067 -0.025984 -0.17571 0.18687 0.18871 -0.0051504 0.23709 0.23067 0.011386 -0.027875 0.23695 0.12793 1.0352 0.17 0.18184 -0.19361 0.65648 0.24197 0.14923 -0.85709 -0.054038 0.21643 0.34293 0.35576 -0.32306 -0.071673 -0.098458 -0.12233 -0.15262 0.4692 -0.014487 0.30269 -0.45415 0.4394 -0.31467 -0.091218 0.15585 0.27343 0.068248 -0.158 0.24958 0.059733 -0.0031749 -0.047823 -0.57122 0.072728 -0.19103 0.64863 
airport 0.18183 -0.27279 -0.11568 0.35464 0.36929 -0.1924 -0.27094 0.03067 -0.17069 0.22839 -0.097192 -0.10118 0.057964 0.028827 -0.34823 -0.078178 -0.095279 0.058758 0.077778 -0.074599 -0.15051 -0.079042 0.022921 0.36533 -0.17212 -0.13017 0.21327 0.0943 0.60659 -0.00504 -0.011759 -0.30395 0.29167 0.17562 -0.1178 -0.53151 0.0022929 0.089437 0.50415 0.19538 0.086927 0.15384 0.04443 0.0022859 -0.17078 0.32613 0.057552 0.029394 -0.24954 0.45751 -0.44923 -0.054727 0.061514 0.22021 -0.05792 -0.08849 -0.059115 0.23749 -0.03328 -0.061129 -0.54774 -0.11351 -0.39928 0.60923 
time 0.089754 0.0095101 0.28494 0.43354 0.52011 -0.26035 -0.24101 0.22932 -0.19016 -0.014214 -0.073445 -0.10632 0.32898 -0.071395 -0.4822 -0.24405 0.10166 0.018856 0.002063 -0.058767 0.097822 0.079807 0.34843 0.14484 -0.12409 -0.29283 0.26892 0.025553 0.57725 -0.018897 -0.18728 -0.21149 0.3523 0.17545 -0.024024 -0.59182 -0.091201 -0.08283 0.40976 0.10798 0.046282 0.052872 0.027755 -0.32543 -0.24848 0.35463 0.30537 0.17912 -0.51768 0.39529 -0.3406 0.078699 0.042599 0.29954 -0.1056 0.020906 -0.040079 0.42799 0.072157 -0.044455 -0.43915 0.019732 -0.41088 0.53856 
mani 0.0022875 -0.020194 0.33281 0.40899 0.83393 -0.28511 -0.074118 -0.21903 -0.00088948 0.21349 -0.2049 -0.054001 0.34161 -0.073218 -0.48811 -0.1647 -0.10781 -0.019724 -0.164 0.15469 0.18625 0.028157 0.24557 0.20265 -0.027012 -0.041442 0.24577 0.11143 0.93559 0.14212 0.15819 -0.23578 0.61143 0.23395 0.1324 -0.80036 -0.047379 0.17433 0.31992 0.31289 -0.2645 -0.059514 -0.1101 -0.11827 -0.12457 0.37602 0.018602 0.27157 -0.45675 0.4708 -0.34992 -0.045405 0.12056 0.26505 0.014192 -0.16583 0.19332 0.11142 0.0089366 -0.033129 -0.55501 0.057926 -0.21679 0.58753 
type 0.085877 -0.10244 0.1923 0.38138 0.68937 -0.29093 -0.071224 -0.21485 -0.018638 0.25185 -0.23082 -0.053664 0.26615 0.01507 -0.3939 -0.092806 -0.13166 -0.0082986 -0.10773 0.099627 0.087371 -0.044206 0.12179 0.22214 -0.012326 -0.045793 0.22803 0.076538 0.85063 0.098625 0.12503 -0.25073 0.55934 0.17797 0.027485 -0.71212 0.0027969 0.15576 0.40531 0.30325 -0.21321 0.012443 -0.092561 -0.052446 -0.13387 0.43212 -0.019105 0.18834 -0.43651 0.43339 -0.40859 -0.06261 0.097633 0.22884 0.0083217 -0.091923 0.11647 0.07443 -0.042743 -0.038262 -0.59876 0.019286 -0.21196 0.59424 
s@@ -0.21747 0.19754 0.47942 0.40532 1.1257 -0.40013 0.11223 -0.060269 -0.1853 0.15268 -0.25913 0.028856 0.5341 -0.042355 -0.62421 -0.24726 -0.065805 -0.12178 -0.10233 0.33318 0.42247 0.18297 0.54953 0.15429 0.1033 -0.099392 0.30625 0.12133 1.1396 0.21625 0.055697 -0.26687 0.64039 0.31654 0.073249 -0.79583 -0.10593 0.18268 0.45909 0.33646 -0.3675 -0.091032 0.02998 -0.30903 -0.15884 0.49582 0.20026 0.43581 -0.53705 0.48833 -0.22561 0.049889 0.1357 0.4188 0.0052452 -0.23817 0.31148 0.086099 -0.022121 -0.16462 -0.6426 0.11376 -0.11098 0.63137 
see 0.025061 0.002541 0.31273 0.39104 0.7266 -0.30515 -0.12503 -0.10162 -0.05036 0.11196 -0.16132 -0.06606 0.34721 -0.068817 -0.42958 -0.20103 -0.030276 0.00080093 -0.11972 0.099642 0.17396 0.034115 0.23275 0.13299 -0.043206 -0.096641 0.2592 0.11446 0.77815 0.07781 0.068642 -0.20821 0.51638 0.21132 0.085084 -0.71039 -0.049956 0.063474 0.31361 0.2794 -0.17345 -0.039636 -0.11787 -0.1608 -0.11967 0.37396 0.10669 0.23783 -0.48841 0.42911 -0.30926 0.0056395 0.10434 0.21514 -0.026912 -0.070051 0.12337 0.18407 0.0072424 -0.019779 -0.46498 0.020495 -0.23234 0.52879 
by 0.014263 0.0044914 0.37532 0.42412 0.82797 -0.30368 -0.099367 -0.14496 -0.059805 0.1257 -0.18699 -0.070829 0.39855 -0.081337 -0.52549 -0.23687 -0.030136 -0.0021855 -0.14904 0.11617 0.22907 0.047582 0.28271 0.17764 -0.033987 -0.11632 0.24175 0.10254 0.91 0.10349 0.092434 -0.2106 0.55029 0.2093 0.11407 -0.77451 -0.090464 0.12191 0.35589 0.31225 -0.24758 -0.042938 -0.13185 -0.20877 -0.16428 0.44646 0.12071 0.30919 -0.51098 0.4588 -0.30867 -0.058382 0.11862 0.2722 -0.00064872 -0.078363 0.16608 0.14666 0.031081 -0.035188 -0.517 0.022305 -0.27407 0.59919 
fb0 0.11227 -0.23986 -0.11187 0.31347 0.44707 -0.20354 -0.16374 0.073551 -0.094898 0.47967 -0.23049 -0.091825 -0.047747 0.10701 -0.21097 0.13638 -0.243 -0.15585 0.015759 0.1758 -0.1563 -0.063095 0.034064 0.27065 0.022993 0.012231 0.21861 0.085904 0.68599 0.17512 0.0030398 -0.42898 0.50494 0.29496 -0.11614 -0.63001 0.079002 0.25814 0.50454 0.10789 -0.048661 0.24927 0.27385 0.14512 -0.08175 0.17758 -0.063245 -0.043753 -0.24018 0.48735 -0.49361 0.046569 0.084253 0.2982 -0.063991 -0.29766 0.077389 0.11183 -0.16629 -0.13446 -0.79799 0.029253 -0.048413 0.53603 
plea@@ -0.096863 0.093128 0.43257 0.40606 0.88854 -0.32901 -0.054844 -0.029171 -0.13441 0.094896 -0.19543 -0.04064 0.45991 -0.039902 -0.56784 -0.23674 -0.030132 -0.038833 -0.09616 0.19647 0.28916 0.10769 0.393 0.12654 -0.013517 -0.14725 0.30514 0.12598 0.96645 0.13294 0.031397 -0.22087 0.55356 0.26325 0.084764 -0.78231 -0.07069 0.092355 0.36318 0.2857 -0.2674 -0.077636 -0.065552 -0.24565 -0.17382 0.4488 0.19367 0.36405 -0.52917 0.44262 -0.27309 0.00012663 0.13223 0.29262 -0.0018583 -0.12726 0.20076 0.14293 0.0062938 -0.076945 -0.55108 0.031598 -0.2265 0.5804 
me@@ -0.12665 0.036168 0.22443 0.34384 0.83936 -0.26353 0.063937 -0.0056825 -0.13922 0.41369 -0.28413 -0.019824 0.21215 0.013537 -0.44829 0.021422 -0.24991 -0.23443 -0.080951 0.4362 0.19487 0.07625 0.35793 0.19491 0.15053 0.0078699 0.26243 0.11315 1.0412 0.32012 0.045644 -0.35078 0.60583 0.35004 0.014877 -0.77588 -0.0075032 0.3347 0.49143 0.18301 -0.33709 0.077344 0.27118 -0.036921 -0.095678 0.28376 0.045766 0.21376 -0.33964 0.51054 -0.32504 0.028238 0.11018 0.45371 0.043913 -0.41898 0.33575 -0.03299 -0.13893 -0.23265 -0.84723 0.15341 0.056344 0.59598 
flight@@ 0.072829 -0.10666 0.23621 0.36824 0.65886 -0.28453 -0.1727 -0.056465 -0.070534 0.12806 -0.15633 -0.081254 0.27452 -0.031345 -0.43321 -0.1974 -0.0016605 0.016732 -0.07826 0.010876 0.078776 -0.0075565 0.18369 0.20523 -0.056285 -0.13936 0.23616 0.10207 0.74828 0.038742 0.013147 -0.25542 0.50125 0.21311 0.044493 -0.68113 -0.050864 0.067819 0.41165 0.30137 -0.10504 0.050946 -0.064997 -0.13929 -0.13088 0.43086 0.14892 0.23206 -0.43866 0.44856 -0.33292 -0.040058 0.12376 0.24361 -0.03561 -0.040149 0.069302 0.1966 -0.022847 -0.036485 -0.47284 -0.027029 -0.30633 0.56314 
about -0.0043452 0.044113 0.41127 0.42572 0.81855 -0.30015 -0.082306 -0.13018 -0.087332 0.07657 -0.16515 -0.061134 0.43381 -0.098211 -0.54681 -0.2574 -0.0098534 0.0087294 -0.14969 0.12207 0.25758 0.057853 0.32553 0.16747 -0.04013 -0.14004 0.25846 0.12113 0.89001 0.09888 0.091775 -0.17619 0.53842 0.20016 0.12714 -0.74468 -0.086975 0.096204 0.34905 0.29717 -0.24148 -0.056286 -0.12895 -0.2579 -0.1745 0.45509 0.14265 0.31905 -0.51409 0.4225 -0.26164 -0.038958 0.12463 0.27688 0.017464 -0.056227 0.18608 0.15264 0.046331 -0.028344 -0.45451 0.035221 -0.28412 0.58127 
an@@ -0.11516 0.0052572 0.18662 0.3216 0.81304 -0.28176 -0.0048993 0.054781 -0.18512 0.41867 -0.30664 -0.030477 0.2461 0.035415 -0.42976 0.019705 -0.20663 -0.23802 -0.055085 0.38754 0.16205 0.067308 0.344 0.2054 0.11963 -0.011653 0.2764 0.11098 0.99474 0.27654 0.036196 -0.37632 0.6167 0.35223 -0.0011764 -0.7494 0.010867 0.30851 0.50257 0.16591 -0.2737 0.10074 0.2706 -0.065078 -0.11422 0.295 0.066724 0.1804 -0.37465 0.50985 -0.35244 0.051044 0.11852 0.42058 -0.0024127 -0.3965 0.29136 0.022495 -0.11795 -0.20086 -0.79801 0.10621 0.010757 0.57527 
use 0.030252 -0.0089556 0.32309 0.40919 0.76637 -0.29332 -0.086344 -0.13008 -0.072052 0.14571 -0.19359 -0.06541 0.3657 -0.04568 -0.48433 -0.18758 -0.04726 -0.0057477 -0.12395 0.10686 0.18961 0.031532 0.25717 0.185 -0.029751 -0.12114 0.24411 0.095189 0.8602 0.10061 0.081502 -0.22728 0.54468 0.19209 0.075993 -0.72418 -0.053356 0.097469 0.38728 0.29295 -0.2134 -0.023296 -0.085416 -0.19163 -0.16643 0.43551 0.086027 0.26848 -0.49876 0.43295 -0.32226 -0.042027 0.11088 0.27341 -0.0017401 -0.073411 0.14644 0.13313 0.0064942 -0.043156 -0.52853 0.03299 -0.25483 0.59645 
eve@@ -0.07732 0.087011 0.33409 0.36847 0.7848 -0.30483 -0.061145 0.062196 -0.1846 0.092547 -0.20117 -0.03536 0.40325 -0.053193 -0.51181 -0.19692 -0.011817 -0.070817 -0.071304 0.18687 0.26158 0.11821 0.37833 0.12766 0.010142 -0.15288 0.27809 0.091203 0.85038 0.126 -0.027665 -0.24473 0.48528 0.25148 0.03641 -0.67861 -0.062597 0.07516 0.40324 0.24 -0.16558 0.0072647 0.037881 -0.25498 -0.17326 0.38771 0.21516 0.27673 -0.51712 0.44158 -0.26498 0.040876 0.095782 0.34352 -0.031378 -0.13956 0.17067 0.16929 -0.015853 -0.11067 -0.54448 0.047131 -0.18259 0.55995 
approx_arrival_time 0.35217 -0.2775 -0.25176 0.49131 0.24815 -0.3663 -0.59376 0.71148 -0.35045 0.13599 -0.14989 -0.1651 0.057162 0.1542 -0.28689 -0.072519 0.12228 0.05225 0.31595 -0.3242 -0.36955 0.022887 0.048619 0.28113 -0.25103 -0.39645 0.38693 -0.059665 0.37552 -0.15473 -0.51178 -0.63793 0.33509 0.31025 -0.48287 -0.56928 0.1354 -0.27836 0.749 0.070672 0.63057 0.3658 0.23364 -0.11632 -0.3373 0.23587 0.34322 -0.23994 -0.66702 0.65593 -0.89004 0.23804 -0.09911 0.32525 -0.46238 0.049019 -0.50654 0.83996 -0.10325 -0.080816 -0.87649 -0.16162 -0.5459 0.74213 
than 0.048492 -0.09588 0.28139 0.49765 0.70916 -0.18487 -0.065166 -0.15626 -0.06574 0.1816 -0.17895 -0.098246 0.21956 -0.062513 -0.46529 -0.17112 -0.048754 0.0033252 -0.08439 0.10603 -0.0041027 -0.024154 0.17553 0.34415 0.028489 -0.01002 0.22585 0.16009 0.98406 0.1991 0.13012 -0.1887 0.65415 0.32455 0.092327 -0.81856 -0.062188 0.21356 0.37531 0.34309 -0.19805 -0.080217 -0.019166 -0.062067 -0.18892 0.45173 -0.066694 0.15725 -0.36742 0.3961 -0.39201 -0.10504 0.15202 0.20023 0.022982 -0.16805 0.22035 0.16293 -0.018992 -0.030834 -0.63882 0.050779 -0.18605 0.77707 
travel 0.00060991 0.0036179 0.36904 0.44691 0.82563 -0.30577 -0.083124 -0.17719 -0.067091 0.12434 -0.18333 -0.069601 0.39132 -0.096069 -0.53387 -0.23186 -0.044218 0.0059006 -0.14548 0.14427 0.21628 0.035961 0.2764 0.19357 -0.03241 -0.094874 0.25977 0.14884 0.93067 0.11367 0.13417 -0.19493 0.58788 0.24094 0.11901 -0.79122 -0.07511 0.12409 0.35496 0.32086 -0.24969 -0.06688 -0.13183 -0.19066 -0.15563 0.45473 0.082089 0.29064 -0.50346 0.44145 -0.30005 -0.041771 0.14018 0.25736 0.027621 -0.10273 0.20776 0.14308 0.021114 -0.032151 -0.51191 0.039683 -0.25698 0.63082 
an 0.0096208 -0.019551 0.342 0.42621 0.81548 -0.27645 -0.090224 -0.15619 -0.057216 0.19262 -0.19928 -0.090411 0.3325 -0.092155 -0.48161 -0.19886 -0.086017 -0.046237 -0.16663 0.14861 0.17817 0.039918 0.2588 0.21309 0.0017563 -0.053975 0.25838 0.16151 0.94115 0.16103 0.14594 -0.20509 0.61813 0.25317 0.14725 -0.81763 -0.063229 0.18343 0.35587 0.30229 -0.25163 -0.028104 -0.066926 -0.14897 -0.13506 0.42597 0.065218 0.2635 -0.45089 0.4583 -0.32661 -0.034614 0.16002 0.27181 0.018829 -0.15697 0.24231 0.12147 0.0014642 -0.047517 -0.52836 0.044596 -0.2256 0.61473 
get 0.022185 0.0034731 0.37803 0.43037 0.82762 -0.30963 -0.10296 -0.18022 -0.04928 0.12509 -0.17858 -0.072603 0.39686 -0.092535 -0.51825 -0.22796 -0.045697 0.007447 -0.1568 0.12307 0.20919 0.033075 0.26748 0.17494 -0.04024 -0.093167 0.26777 0.13941 0.90922 0.10268 0.12092 -0.20699 0.58503 0.21637 0.12911 -0.78161 -0.062135 0.11341 0.33654 0.32015 -0.23692 -0.061354 -0.14083 -0.1857 -0.14653 0.43194 0.081273 0.2913 -0.51558 0.44512 -0.31018 -0.037848 0.13431 0.25735 0.010243 -0.089364 0.17463 0.1497 0.022983 -0.019251 -0.48788 0.036514 -0.25524 0.59741 
day_arrival 0.42556 -0.31478 -0.35096 0.55183 0.26852 -0.43424 -0.73999 0.89761 -0.43597 0.12763 -0.20386 -0.19101 0.082968 0.19104 -0.30311 -0.091134 0.16898 0.081985 0.37093 -0.4203 -0.43989 0.044428 0.003476 0.2991 -0.31185 -0.4822 0.44518 -0.076257 0.37115 -0.2254 -0.64132 -0.7989 0.36525 0.35933 -0.60703 -0.64974 0.18215 -0.38928 0.86746 0.10162 0.83187 0.48282 0.27344 -0.13861 -0.41089 0.22711 0.40999 -0.31122 -0.85787 0.79231 -1.076 0.31865 -0.13733 0.36639 -0.58733 0.0987 -0.64304 1.0385 -0.13314 -0.090262 -1.0209 -0.22808 -0.64219 0.84402 
i'm 0.046661 -0.030836 0.28133 0.39947 0.69698 -0.29263 -0.12432 -0.097848 -0.066214 0.11504 -0.15431 -0.072613 0.32602 -0.054786 -0.43049 -0.19051 -0.029293 0.0070602 -0.12066 0.074804 0.13973 0.019513 0.21946 0.15775 -0.047848 -0.10012 0.24659 0.11502 0.76865 0.073576 0.076486 -0.20744 0.49933 0.21219 0.062819 -0.69549 -0.034998 0.073262 0.33725 0.2724 -0.16279 -0.026339 -0.1166 -0.14961 -0.12916 0.37662 0.084047 0.20788 -0.47141 0.41902 -0.3124 -0.012016 0.10651 0.2188 -0.03121 -0.06689 0.11703 0.18016 0.00034327 -0.020698 -0.46719 0.0084684 -0.24046 0.53063 
late:pd 0.34414 -0.32874 -0.32498 0.44696 0.28268 -0.35716 -0.62632 0.6401 -0.34721 0.14539 -0.18471 -0.16497 0.040866 0.15308 -0.25887 -0.076144 0.1082 0.078998 0.29082 -0.32269 -0.4032 -0.0099715 -0.05116 0.29978 -0.24372 -0.34157 0.37323 0.010043 0.40462 -0.16411 -0.4455 -0.67963 0.33985 0.34018 -0.45258 -0.56484 0.16653 -0.25499 0.73512 0.17477 0.64701 0.40852 0.20412 -0.061197 -0.29706 0.23278 0.31235 -0.22356 -0.64991 0.67882 -0.85973 0.20474 -0.06093 0.2833 -0.44 0.045373 -0.48407 0.76336 -0.13295 -0.078444 -0.83761 -0.2265 -0.53543 0.72707 
expens -0.00065177 -0.016146 0.30849 0.41482 0.79601 -0.30002 -0.066142 -0.15033 -0.067085 0.15733 -0.20751 -0.045845 0.34672 -0.043818 -0.49028 -0.18131 -0.055724 -0.027457 -0.12556 0.14168 0.17305 0.012576 0.24564 0.2014 -0.012525 -0.07648 0.24714 0.095245 0.9004 0.11004 0.093162 -0.22993 0.57516 0.21726 0.062887 -0.76332 -0.025479 0.14293 0.36899 0.30523 -0.23025 -0.031393 -0.078802 -0.14552 -0.1511 0.4321 0.07148 0.27186 -0.48322 0.41931 -0.33576 -0.049869 0.12044 0.26398 -0.0043701 -0.10149 0.16617 0.12281 -0.0073863 -0.055038 -0.55446 0.02477 -0.20572 0.59818 
rc@@ -0.081181 0.048154 0.26768 0.30892 0.6971 -0.26175 -0.016208 0.0085482 -0.13684 0.14166 -0.19076 -0.02038 0.3147 -0.020495 -0.43226 -0.13312 -0.052938 -0.074747 -0.051166 0.18587 0.19611 0.077386 0.30927 0.1458 0.031657 -0.095281 0.23195 0.078601 0.78547 0.14233 0.010199 -0.22482 0.45183 0.22877 0.019192 -0.59747 -0.037633 0.11172 0.35426 0.21085 -0.18 -0.011524 0.047786 -0.16776 -0.12767 0.33685 0.12569 0.22661 -0.39345 0.38486 -0.25255 0.009287 0.085256 0.29988 -0.019407 -0.16104 0.16214 0.096038 -0.032869 -0.11268 -0.52569 0.05442 -0.12383 0.50166 
book 0.055464 -0.035991 0.27816 0.39334 0.71776 -0.32146 -0.14013 -0.097556 -0.050899 0.13933 -0.18535 -0.074101 0.33139 -0.040279 -0.40986 -0.1869 -0.034532 -0.0015018 -0.12034 0.061029 0.1452 0.030767 0.18737 0.14821 -0.044279 -0.093211 0.25152 0.10925 0.76587 0.062845 0.069985 -0.24092 0.55464 0.2112 0.049205 -0.72165 -0.025733 0.060267 0.33509 0.30035 -0.13495 -0.0075727 -0.12892 -0.13155 -0.12561 0.38469 0.088654 0.20589 -0.51095 0.44572 -0.35611 0.001065 0.092947 0.20969 -0.065673 -0.042354 0.089739 0.19729 -0.0084915 -0.013844 -0.48825 0.0045046 -0.23616 0.54423 
could 0.034467 -0.00015159 0.36346 0.42047 0.77972 -0.29681 -0.10841 -0.16704 -0.034223 0.12608 -0.17026 -0.069863 0.37384 -0.080177 -0.48183 -0.22057 -0.045192 0.009599 -0.16229 0.10371 0.20742 0.03485 0.25379 0.16947 -0.035017 -0.093063 0.24621 0.12524 0.85623 0.092219 0.11978 -0.18497 0.57108 0.20099 0.13048 -0.76157 -0.062089 0.10491 0.3378 0.2992 -0.22584 -0.045298 -0.13932 -0.18826 -0.14175 0.42821 0.089582 0.27944 -0.50263 0.42264 -0.30065 -0.034695 0.1229 0.24794 0.0064831 -0.059277 0.17264 0.15055 0.020988 -0.014757 -0.4667 0.029403 -0.25875 0.56631 
a@@ -0.21066 0.1776 0.43479 0.35917 0.9646 -0.34479 0.060146 0.053526 -0.20327 0.11691 -0.25275 0.015612 0.48072 -0.030819 -0.57494 -0.1987 -0.036076 -0.12693 -0.05804 0.31417 0.35327 0.1533 0.49095 0.11471 0.075793 -0.12791 0.30269 0.099251 1.027 0.21598 -0.010894 -0.23846 0.56991 0.31218 0.039233 -0.74637 -0.067504 0.13543 0.39734 0.26383 -0.29025 -0.076167 0.07362 -0.27313 -0.16281 0.43882 0.20841 0.36486 -0.50731 0.44554 -0.2217 0.044865 0.10502 0.36605 -0.013358 -0.22119 0.26703 0.078856 -0.034778 -0.15615 -0.63522 0.088757 -0.071572 0.59368 
know 0.011533 0.022763 0.3831 0.42078 0.81236 -0.31033 -0.10616 -0.14139 -0.056904 0.10351 -0.17167 -0.069251 0.40917 -0.086317 -0.50459 -0.23469 -0.027019 0.0032964 -0.15722 0.10887 0.22782 0.04699 0.28382 0.14793 -0.040631 -0.11882 0.26345 0.12343 0.86804 0.090068 0.096982 -0.19438 0.56306 0.20238 0.12371 -0.76438 -0.067593 0.07613 0.33362 0.30613 -0.22333 -0.054548 -0.14109 -0.21325 -0.14818 0.42609 0.11735 0.29575 -0.53379 0.44028 -0.28835 -0.015426 0.1218 0.25116 0.0015133 -0.057851 0.17017 0.1637 0.030646 -0.022398 -0.47135 0.032097 -0.26406 0.57136 
do@@ -0.050884 -0.049424 0.21421 0.40856 0.7671 -0.24983 -0.013733 -0.041101 -0.12674 0.24829 -0.22346 -0.040423 0.23062 0.0019705 -0.44836 -0.09115 -0.11192 -0.088201 -0.021304 0.21428 0.067532 0.031228 0.25083 0.29803 0.069475 -0.013192 0.25734 0.11437 0.99819 0.23995 0.074425 -0.26407 0.633 0.35186 0.0054997 -0.76443 -0.029269 0.22334 0.42926 0.28546 -0.18158 -0.035997 0.10826 -0.064423 -0.17539 0.42873 -0.0078807 0.17331 -0.36101 0.43588 -0.38775 -0.039111 0.11377 0.28732 -0.0079797 -0.25927 0.21306 0.10064 -0.063525 -0.11442 -0.72138 0.095595 -0.10153 0.71826 
make 0.020685 -0.0012437 0.3247 0.40952 0.74552 -0.31572 -0.12513 -0.11891 -0.044206 0.1164 -0.17172 -0.071849 0.3542 -0.073124 -0.43732 -0.20461 -0.020807 0.0048383 -0.12949 0.097402 0.17002 0.03788 0.23382 0.14103 -0.041332 -0.095155 0.25955 0.13103 0.78663 0.077447 0.090025 -0.21652 0.54044 0.22968 0.083987 -0.71612 -0.043115 0.062759 0.31566 0.28993 -0.17375 -0.056748 -0.14109 -0.15344 -0.11626 0.37802 0.10036 0.22372 -0.49301 0.42779 -0.31862 -0.0048479 0.10558 0.20497 -0.034213 -0.078596 0.13009 0.18401 0.0057052 -0.0080271 -0.47153 0.020229 -0.22111 0.53747 
less 0.066148 -0.1493 0.21007 0.49561 0.67195 -0.19471 -0.054081 -0.17241 -0.054144 0.23615 -0.19603 -0.083414 0.1597 -0.037149 -0.41891 -0.11395 -0.095232 -0.01392 -0.038667 0.1093 -0.075773 -0.029871 0.12082 0.36877 0.031398 0.034306 0.23336 0.14271 0.98381 0.21251 0.13685 -0.21188 0.68754 0.35549 0.065943 -0.82912 -0.044368 0.24671 0.3778 0.34159 -0.16995 -0.065257 0.021424 0.0066172 -0.19329 0.45977 -0.12029 0.14118 -0.33269 0.39388 -0.4401 -0.10695 0.15177 0.1985 0.025537 -0.19064 0.1874 0.15299 -0.025318 -0.047101 -0.6777 0.084792 -0.15262 0.79612 
